delta0,memory_gain,memory_decay,weight_phase,weight_centroid,weight_peak
-4.0,0.0,0.0,-0.3981729183332104,0.08820999071233424,0.28372968614426763
-3.6666666666666665,0.0,0.0,-0.5896875740359071,-0.08715788515072181,0.242732796144009
-3.3333333333333335,0.0,0.0,-0.8521316588589739,-0.32958089007597513,0.15199250698499017
-3.0,0.0,0.0,-1.0549607157019616,-0.5099761600534176,-0.04176667773593064
-2.666666666666667,0.0,0.0,-1.0441874774010704,-0.46871373656074744,-0.3875752430744412
-2.3333333333333335,0.0,0.0,-0.8196092397426311,-0.2624183205615291,-0.7531052527765544
-2.0,0.0,0.0,-0.5449968946715454,-0.11525054389827946,-0.9232478033877576
-1.666666666666667,0.0,0.0,-0.3315705458288061,-0.07808463685306294,-0.9149075449830532
-1.3333333333333335,0.0,0.0,-0.1884795012215493,-0.08367242332873372,-0.8475226029370803
-1.0,0.0,0.0,-0.09372304707272949,-0.08598637193800121,-0.7879560067536601
-0.666666666666667,0.0,0.0,-0.028560328550901442,-0.06695501517228436,-0.7599195334349362
-0.3333333333333335,0.0,0.0,0.015853922630855236,-0.006439187140894284,-0.7885839767020275
0.0,0.0,0.0,0.044991392661100124,0.16286826655210732,-0.9492121188621118
0.33333333333333304,0.0,0.0,0.015119552282166444,-0.0067438282196452745,-0.7892424455145611
0.6666666666666661,0.0,0.0,-0.029782829200715635,-0.06751553015474149,-0.7610016030149271
1.0,0.0,0.0,-0.09516764461450043,-0.08668615350656889,-0.7892719945237742
1.333333333333333,0.0,0.0,-0.18998402910714657,-0.0844134056368462,-0.8489688703313668
1.666666666666666,0.0,0.0,-0.33308805801273017,-0.07881370928017646,-0.9164375207356151
2.0,0.0,0.0,-0.5465573583725112,-0.11596950361057883,-0.9247985779558333
2.333333333333333,0.0,0.0,-0.8212642309829029,-0.2631998885870445,-0.7545131047924928
2.666666666666666,0.0,0.0,-1.0458997042134826,-0.46960595168260516,-0.3886315545199054
3.0,0.0,0.0,-1.0565255416077248,-0.5108210768060292,-0.042446827064122304
3.333333333333333,0.0,0.0,-0.8533275655807879,-0.3301524318752056,0.15156211121124225
3.666666666666666,0.0,0.0,-0.5904617371130279,-0.08740277964463171,0.24245096945708858
4.0,0.0,0.0,-0.3986312390268566,0.0881891328338248,0.28354168780885564
-4.0,0.25,0.0,-0.415424177988897,0.08942873689821053,0.33121313750063447
-3.6666666666666665,0.25,0.0,-0.5769564540325435,-0.0583801246230482,0.2955943814732378
-3.3333333333333335,0.25,0.0,-0.8311062394113756,-0.29170335634369493,0.20998508329838925
-3.0,0.25,0.0,-1.0539123639239134,-0.4889862547469179,0.02668149541538543
-2.666666666666667,0.25,0.0,-1.0910669080855944,-0.4920388564433422,-0.30414096442455163
-2.3333333333333335,0.25,0.0,-0.9120637055197717,-0.3181886102723812,-0.6798480350433909
-2.0,0.25,0.0,-0.6483007528493887,-0.15944514200818038,-0.899390330671572
-1.666666666666667,0.25,0.0,-0.41880309246199265,-0.09632493629813427,-0.9375328600512942
-1.3333333333333335,0.25,0.0,-0.2547080340746582,-0.08831242256178876,-0.8895746971782714
-1.0,0.25,0.0,-0.1436463613923614,-0.08872047881181833,-0.8304384854230136
-0.666666666666667,0.25,0.0,-0.06715740896551328,-0.07309805671185117,-0.7945455306283541
-0.3333333333333335,0.25,0.0,-0.013768548456318084,-0.02010464808909694,-0.8089078967934038
0.0,0.25,0.0,0.023328932464543296,0.12899527421424206,-0.9398700736452996
0.33333333333333304,0.25,0.0,0.009695790184688023,0.02076956123394627,-0.8318014942010411
0.6666666666666661,0.25,0.0,-0.027131672688731335,-0.0494321675807468,-0.7850890176175924
1.0,0.25,0.0,-0.08632613234875589,-0.0782800598292975,-0.7977217548622361
1.333333333333333,0.25,0.0,-0.1748106043250054,-0.08173073661268528,-0.8483448814125281
1.666666666666666,0.25,0.0,-0.3091218939450843,-0.077802986299634,-0.9129359009599933
2.0,0.25,0.0,-0.5105629900808168,-0.10805165826421041,-0.931383348587303
2.333333333333333,0.25,0.0,-0.7760448533151731,-0.2365268533517339,-0.7927824354095131
2.666666666666666,0.25,0.0,-1.013580682185937,-0.4344970359296954,-0.46034570640232586
3.0,0.25,0.0,-1.069465082073605,-0.5105868360585639,-0.10454557646613251
3.333333333333333,0.25,0.0,-0.9126531851014064,-0.3783850838451571,0.1298279487853041
3.666666666666666,0.25,0.0,-0.6642035811322546,-0.15220168327916947,0.2536169296638126
4.0,0.25,0.0,-0.45649192626475155,0.03799801295647598,0.3131445802189378
-4.0,0.5,0.0,-0.4361564649472864,0.09565472513272943,0.36810994780483913
-3.6666666666666665,0.5,0.0,-0.5766734065235689,-0.03404783259336683,0.33751590227332073
-3.3333333333333335,0.5,0.0,-0.8172497418402118,-0.2556163838870035,0.2586055181919066
-3.0,0.5,0.0,-1.0481176868365503,-0.4608036982508339,0.08612018935609385
-2.666666666666667,0.5,0.0,-1.1195741679650393,-0.4967197586361667,-0.22974265435515398
-2.3333333333333335,0.5,0.0,-0.9822531518468103,-0.3559336894774431,-0.6064225509329724
-2.0,0.5,0.0,-0.7395178231538067,-0.20067995817159295,-0.8588820137211157
-1.666666666666667,0.5,0.0,-0.5062403418991362,-0.12147073771617777,-0.9388727864864957
-1.3333333333333335,0.5,0.0,-0.3268603578695926,-0.09905316269626992,-0.9177934765329494
-1.0,0.5,0.0,-0.19989534308047807,-0.09343067168479983,-0.8679491714831538
-0.666666666666667,0.5,0.0,-0.11074733381256263,-0.07816899066696234,-0.8300386411010954
-0.3333333333333335,0.5,0.0,-0.04751796603935368,-0.03052434896905104,-0.8343760307856131
0.0,0.5,0.0,-0.0023426285339980917,0.10288476605424102,-0.942317485326202
0.33333333333333304,0.5,0.0,-0.002930494521772386,0.02989111491144262,-0.8612050717482851
0.6666666666666661,0.5,0.0,-0.03030146862144792,-0.03504872233555591,-0.8112688381304122
1.0,0.5,0.0,-0.08231321276800085,-0.06865252753613085,-0.8124619745972526
1.333333333333333,0.5,0.0,-0.16416422155573984,-0.07749539699082944,-0.8532352750466204
1.666666666666666,0.5,0.0,-0.29032591553456855,-0.07642889052409718,-0.9126254053635939
2.0,0.5,0.0,-0.4809246126511826,-0.10290270788092261,-0.9361190804068409
2.333333333333333,0.5,0.0,-0.7365149050466857,-0.21731108906920482,-0.8205753153007604
2.666666666666666,0.5,0.0,-0.9792345832720819,-0.40433072112941765,-0.5187969621944377
3.0,0.5,0.0,-1.0670482274984665,-0.4990973530030123,-0.1679985409373149
3.333333333333333,0.5,0.0,-0.9521878508774345,-0.40455003228613795,0.09011274952470125
3.666666666666666,0.5,0.0,-0.728085384224695,-0.2013321429665537,0.24219052001619132
4.0,0.5,0.0,-0.5187667419667421,-0.008615876024787014,0.32201279387343995
-4.0,0.75,0.0,-0.45737616636932993,0.1016276033614338,0.4044805998371244
-3.6666666666666665,0.75,0.0,-0.5831402036320258,-0.01521743752034485,0.37732875722879833
-3.3333333333333335,0.75,0.0,-0.8109754178220657,-0.22547603801991695,0.30374195854810215
-3.0,0.75,0.0,-1.0442654509667246,-0.43301230914816724,0.14006562643253928
-2.666666666666667,0.75,0.0,-1.1401878850941742,-0.49209375624692553,-0.1630289563615558
-2.3333333333333335,0.75,0.0,-1.0382285166415932,-0.38003603733176483,-0.5370621316800029
-2.0,0.75,0.0,-0.8196298453330296,-0.23478996177999178,-0.8116730703391517
-1.666666666666667,0.75,0.0,-0.5908263089662615,-0.14781498750564565,-0.9262290570821146
-1.3333333333333335,0.75,0.0,-0.4027654180992264,-0.11400420231157357,-0.9330525747365084
-1.0,0.75,0.0,-0.2626400038655044,-0.10114062873227145,-0.8978282541784759
-0.666666666666667,0.75,0.0,-0.16076431947679581,-0.08372535670333366,-0.863281951654818
-0.3333333333333335,0.75,0.0,-0.08648849711942594,-0.0386670423723914,-0.8620871906173491
0.0,0.75,0.0,-0.031819361395067206,0.08360660094670372,-0.9526861748551096
0.33333333333333304,0.75,0.0,-0.02001900890212702,0.03288982157043937,-0.8861175282831044
0.6666666666666661,0.75,0.0,-0.037131192041625204,-0.023921312628974064,-0.8360393513401342
1.0,0.75,0.0,-0.08099314116589693,-0.058278533384502666,-0.8293927317712142
1.333333333333333,0.75,0.0,-0.15570702089127994,-0.07068725868725174,-0.8613993134316514
1.666666666666666,0.75,0.0,-0.27401088945640567,-0.07248240820720307,-0.9147434786825737
2.0,0.75,0.0,-0.45472273411765485,-0.09712539764108521,-0.9400354335031975
2.333333333333333,0.75,0.0,-0.7005984306235323,-0.2012619451526435,-0.841111031956686
2.666666666666666,0.75,0.0,-0.9443150041655247,-0.37807560736019713,-0.5652371759195085
3.0,0.75,0.0,-1.0547338853220047,-0.4834552920993581,-0.22490411316015968
3.333333333333333,0.75,0.0,-0.9751421066797681,-0.41785802689864837,0.046299847401918295
3.666666666666666,0.75,0.0,-0.7777149864764796,-0.2382455174989962,0.22077124923705516
4.0,0.75,0.0,-0.5752974188701776,-0.05067715155849082,0.32064026069700996
-4.0,1.0,0.0,-0.4779939746416067,0.10781842844729866,0.44080717099131556
-3.6666666666666665,1.0,0.0,-0.5924481174572931,0.0007320517161413312,0.4163575854779405
-3.3333333333333335,1.0,0.0,-0.8084828612931596,-0.1993033468038925,0.34745578902404245
-3.0,1.0,0.0,-1.0406902610478568,-0.40638439755028954,0.1916682267999786
-2.666666666666667,1.0,0.0,-1.1537879827410102,-0.48222298024177607,-0.09984258302848202
-2.3333333333333335,1.0,0.0,-1.08091616508734,-0.39449667499160906,-0.4691360728969268
-2.0,1.0,0.0,-0.8862795400501324,-0.2618529836476689,-0.7586423194849958
-1.666666666666667,1.0,0.0,-0.6669473233371264,-0.17289487146511545,-0.9011135284043392
-1.3333333333333335,1.0,0.0,-0.4761464854481513,-0.1315043330227018,-0.9342859649298575
-1.0,1.0,0.0,-0.3270811141812607,-0.11228670974086077,-0.9163163833765386
-0.666666666666667,1.0,0.0,-0.21458910166635684,-0.09191901623557887,-0.8893335807629654
-0.3333333333333335,1.0,0.0,-0.12999256785433036,-0.04789581421145386,-0.8869819483341077
0.0,1.0,0.0,-0.06587276331046674,0.06613454334692118,-0.9654250663585721
0.33333333333333304,1.0,0.0,-0.042437489754854174,0.031093311900457842,-0.9083702452912027
0.6666666666666661,1.0,0.0,-0.04914609364739157,-0.017262268503181695,-0.8594183742668742
1.0,1.0,0.0,-0.08426242833452884,-0.049964047829088296,-0.8475227123370196
1.333333333333333,1.0,0.0,-0.15128514838165794,-0.06402502036056637,-0.8722959854657708
1.666666666666666,1.0,0.0,-0.26162455066649976,-0.06789918581385984,-0.9196801629466221
2.0,1.0,0.0,-0.4328849949426379,-0.09148620224659765,-0.9448582298461121
2.333333333333333,1.0,0.0,-0.6691936631087249,-0.18782613076927757,-0.857921668942105
2.666666666666666,1.0,0.0,-0.9112793414180278,-0.3556217268605029,-0.6033736426825488
3.0,1.0,0.0,-1.037588339837572,-0.466991444291314,-0.2751334953674618
3.333333333333333,1.0,0.0,-0.9867684291619714,-0.4234697737171229,0.0024274829912220297
3.666666666666666,1.0,0.0,-0.8149482452687117,-0.26539516517198486,0.19358721847001187
4.0,1.0,0.0,-0.6238602892627789,-0.08658188167247007,0.3112359163477849
-4.0,1.5,0.0,-0.5193456874798564,0.11990874703498129,0.5125686773532795
-3.6666666666666665,1.5,0.0,-0.618083045616602,0.026424988347556376,0.4918609968183656
-3.3333333333333335,1.5,0.0,-0.8151043356591081,-0.15706791303218862,0.43008347351889487
-3.0,1.5,0.0,-1.0416115662825232,-0.3597675359045155,0.28673415405820657
-2.666666666666667,1.5,0.0,-1.1760948418489434,-0.45671774524763936,0.014121633475602746
-2.3333333333333335,1.5,0.0,-1.1465530112956461,-0.4056576572050864,-0.34415764863846865
-2.0,1.5,0.0,-0.9940483264966027,-0.29802312011594173,-0.650753118953379
-1.666666666666667,1.5,0.0,-0.7988649750522728,-0.21366940561857078,-0.8336246752274468
-1.3333333333333335,1.5,0.0,-0.612972759573077,-0.16553426651801617,-0.9111720213640124
-1.0,1.5,0.0,-0.45586545292668046,-0.13780487772847352,-0.9281566899684288
-0.666666666666667,1.5,0.0,-0.32886123309895005,-0.11183491451186409,-0.9223488620870288
-0.3333333333333335,1.5,0.0,-0.227201116737537,-0.06740944448530602,-0.9265066996457949
0.0,1.5,0.0,-0.14545796501986166,0.03632746042984079,-0.9925508692146586
0.33333333333333304,1.5,0.0,-0.10061550974566386,0.02180041855229469,-0.9481774958259434
0.6666666666666661,1.5,0.0,-0.08676910639801133,-0.011885633189515006,-0.902457073149953
1.0,1.5,0.0,-0.10351393051121074,-0.038581446164394635,-0.8843680728311082
1.333333333333333,1.5,0.0,-0.154008809492178,-0.05238162092811113,-0.8984075988900179
1.666666666666666,1.5,0.0,-0.24792535802304566,-0.05805256015893155,-0.9353392602709288
2.0,1.5,0.0,-0.400895514746227,-0.08001241406945639,-0.957689586199959
2.333333333333333,1.5,0.0,-0.6184986028863041,-0.16507551748064475,-0.8860149185911469
2.666666666666666,1.5,0.0,-0.8528171567105447,-0.31811360140641476,-0.6634944367111524
3.0,1.5,0.0,-0.9977716436775359,-0.43446304736182695,-0.3588099940942691
3.333333333333333,1.5,0.0,-0.9890498694447364,-0.4213931956366883,-0.07934116831907423
3.666666666666666,1.5,0.0,-0.8612370775902752,-0.29866914054010946,0.13247070716001155
4.0,1.5,0.0,-0.6971464042009562,-0.14051769265337294,0.2773835936654297
-4.0,2.0,0.0,-0.5615541093685291,0.13213577539324478,0.5823839933834816
-3.6666666666666665,2.0,0.0,-0.64990978190017,0.047870079391567635,0.564030781203514
-3.3333333333333335,2.0,0.0,-0.8325458373704373,-0.12275148524375229,0.5072637707709018
-3.0,2.0,0.0,-1.0518829386666269,-0.3192958706778539,0.37331255212869136
-2.666666666666667,2.0,0.0,-1.197636635131507,-0.42772965634976207,0.1157651523494592
-2.3333333333333335,2.0,0.0,-1.1972566918484588,-0.40187987099269407,-0.23110278966053563
-2.0,2.0,0.0,-1.0776910563332294,-0.3155960270784781,-0.5449823914665868
-1.666666666666667,2.0,0.0,-0.9063964603230226,-0.24027577280101575,-0.7538560742755105
-1.3333333333333335,2.0,0.0,-0.7315956264222759,-0.19220856641818984,-0.864797015216389
-1.0,2.0,0.0,-0.5749082173286435,-0.16119891821862262,-0.9125252007234517
-0.666666666666667,2.0,0.0,-0.44129893320496644,-0.13228263105120205,-0.9296800409951047
-0.3333333333333335,2.0,0.0,-0.3288931111646467,-0.08767050475340471,-0.9464706601225719
0.0,2.0,0.0,-0.23418068954032606,0.00901470490860612,-1.0106041968899615
0.33333333333333304,2.0,0.0,-0.17247809488738536,0.007040246127728601,-0.9779295637791395
0.6666666666666661,2.0,0.0,-0.14095241871592656,-0.015289241448049148,-0.938143853991859
1.0,2.0,0.0,-0.14058446726876625,-0.035280857855984386,-0.9189141851812026
1.333333333333333,2.0,0.0,-0.17481002384926983,-0.04642283705982808,-0.9271685020647615
1.666666666666666,2.0,0.0,-0.2524582686690803,-0.051587156918843774,-0.9569085398533914
2.0,2.0,0.0,-0.3878634968370408,-0.07150271578500711,-0.976119936473305
2.333333333333333,2.0,0.0,-0.5873533991769664,-0.1482033791372816,-0.9135252837851736
2.666666666666666,2.0,0.0,-0.8105944943851278,-0.2895849132280141,-0.7133453318527782
3.0,2.0,0.0,-0.9630992279687243,-0.4064396255953399,-0.4285262725230894
3.333333333333333,2.0,0.0,-0.9811337622158466,-0.4123733869933973,-0.1530653953580149
3.666666666666666,2.0,0.0,-0.8863007645805863,-0.31571118464441716,0.0693158487970536
4.0,2.0,0.0,-0.7473761696459273,-0.17688530052226362,0.23264858161438032
-4.0,0.0,0.05,-0.4254518869548051,0.061468860482012194,0.28032497128451045
-3.6666666666666665,0.0,0.05,-0.6268000383780483,-0.12721255465063838,0.23767605066542932
-3.3333333333333335,0.0,0.05,-0.8807535381534811,-0.3694817846116978,0.1448397309416621
-3.0,0.0,0.05,-1.053432911774241,-0.5295062524701083,-0.05383145144880256
-2.666666666666667,0.0,0.05,-1.0119341029887965,-0.4661535043321317,-0.3993031228245215
-2.3333333333333335,0.0,0.05,-0.7808495005923134,-0.2599005266111221,-0.748427910225859
-2.0,0.0,0.05,-0.5178931561868552,-0.1208656853565682,-0.9056954127420862
-1.666666666666667,0.0,0.05,-0.3168486132889802,-0.08509934231127225,-0.8981522661170275
-1.3333333333333335,0.0,0.05,-0.18181840353860407,-0.0881769153424971,-0.8372264563597388
-1.0,0.0,0.05,-0.0918525284819467,-0.0873029852941826,-0.7845573379624191
-0.666666666666667,0.0,0.05,-0.02959931559425399,-0.06460728976179987,-0.7632644739958556
-0.3333333333333335,0.0,0.05,0.013307273811064762,0.001142218478618026,-0.7993700019611862
0.0,0.0,0.05,0.042689761960899124,0.17795937254842073,-0.9681561402823438
0.33333333333333304,0.0,0.05,0.012595305537056864,0.0008503119215164288,-0.8000116548642627
0.6666666666666661,0.0,0.05,-0.030792277797195705,-0.06514904228931569,-0.7643237859315644
1.0,0.0,0.05,-0.09327248672470854,-0.08798554574601128,-0.7858513006494023
1.333333333333333,0.0,0.05,-0.1833060290838092,-0.08890670930032106,-0.8386516487172591
1.666666666666666,0.0,0.05,-0.31835343586758946,-0.08582503074712566,-0.8996599672260828
2.0,0.0,0.05,-0.519438391045762,-0.12158703209563167,-0.9072246521896574
2.333333333333333,0.0,0.05,-0.782483024432996,-0.2606836119789995,-0.7498267827525632
2.666666666666666,0.0,0.05,-1.013632332647067,-0.46705121441502817,-0.40036983257989045
3.0,0.0,0.05,-1.0550159790156857,-0.5303819319859833,-0.05452737227269392
3.333333333333333,0.0,0.05,-0.8820010241452336,-0.3701080044928601,0.14439595114868362
3.666666666666666,0.0,0.05,-0.6276338920604065,-0.12751111899050196,0.23738224055388848
4.0,0.0,0.05,-0.4259553640285086,0.06141350518468427,0.2801264511347177
-4.0,0.25,0.05,-0.4291799859701473,0.05797206559811199,0.30120232001873654
-3.6666666666666665,0.25,0.05,-0.5954829216242639,-0.0966820952572821,0.2645752323023422
-3.3333333333333335,0.25,0.05,-0.8370330792154415,-0.3247733415341618,0.17930363201276087
-3.0,0.25,0.05,-1.0260983470593616,-0.49898931612735276,-0.0024318524596872865
-2.666666666666667,0.25,0.05,-1.0290498402942552,-0.4793219442789941,-0.3229297601366181
-2.3333333333333335,0.25,0.05,-0.8406778186295197,-0.3055297614143644,-0.6723090652941449
-2.0,0.25,0.05,-0.5894570328588337,-0.15772904991585368,-0.8691792309755693
-1.666666666666667,0.25,0.05,-0.37688348292109175,-0.09984153103605979,-0.9012497755128495
-1.3333333333333335,0.25,0.05,-0.22574992104846095,-0.09117739763493626,-0.8576972110090568
-1.0,0.25,0.05,-0.12320494315878876,-0.08878078151235701,-0.8061948029435363
-0.666666666666667,0.25,0.05,-0.052445582119921355,-0.06973375264557685,-0.7785800999057838
-0.3333333333333335,0.25,0.05,-0.00325968996398334,-0.012355638913074047,-0.8020052275704457
0.0,0.25,0.05,0.03105241571502311,0.14267455464582132,-0.9427632854603356
0.33333333333333304,0.25,0.05,0.014294879544975346,0.0284693125737796,-0.831691037895472
0.6666666666666661,0.25,0.05,-0.02336087275516373,-0.04686685508728354,-0.7805414526848803
1.0,0.25,0.05,-0.08090890595908956,-0.07967218574813939,-0.7878006440379534
1.333333333333333,0.25,0.05,-0.16495582373135145,-0.0865977160264763,-0.8318954806120585
1.666666666666666,0.25,0.05,-0.2908749483612607,-0.08543160218341192,-0.8897609199715607
2.0,0.25,0.05,-0.4786896976842637,-0.11454873674819527,-0.906590790598118
2.333333333333333,0.25,0.05,-0.7289613044559966,-0.2340585292229392,-0.7807153559416408
2.666666666666666,0.25,0.05,-0.9653616816742969,-0.4263565902445096,-0.47013304285069335
3.0,0.25,0.05,-1.0443662455940024,-0.5164038697248521,-0.12630104423783228
3.333333333333333,0.25,0.05,-0.918003647232795,-0.4042052139023551,0.10423977244612917
3.666666666666666,0.25,0.05,-0.6855386118988215,-0.18546731579488546,0.2263039167907147
4.0,0.25,0.05,-0.4756575700618966,0.0103358777757502,0.2861241913712389
-4.0,0.5,0.05,-0.4364479308654941,0.05931408321837542,0.3118812361415796
-3.6666666666666665,0.5,0.05,-0.5781718570000334,-0.07276032308066803,0.2807637619003212
-3.3333333333333335,0.5,0.05,-0.8027109404160224,-0.28465785913069824,0.20393365551242115
-3.0,0.5,0.05,-0.9970735031663678,-0.4641933223037684,0.03785418959591051
-2.666666666666667,0.5,0.05,-1.031838910871208,-0.4767480887144854,-0.2595543443667774
-2.3333333333333335,0.5,0.05,-0.8827725054544242,-0.33594073670662894,-0.6010446491276683
-2.0,0.5,0.05,-0.652300535026767,-0.19312998444175855,-0.8219709345857911
-1.666666666666667,0.5,0.05,-0.43872782842252855,-0.12199710747312502,-0.888582886530302
-1.3333333333333335,0.5,0.05,-0.27647552532538855,-0.10118349252657016,-0.8679377298892981
-1.0,0.5,0.05,-0.16191366460844053,-0.09390265601353036,-0.8246010412935831
-0.666666666666667,0.5,0.05,-0.081551903247747,-0.07581476602701726,-0.7952699685654507
-0.3333333333333335,0.5,0.05,-0.02495767686524751,-0.02447458524386189,-0.8093881786812858
0.0,0.5,0.05,0.015238357995174043,0.11378045129728448,-0.9278741585815165
0.33333333333333304,0.5,0.05,0.009748698312767477,0.03729833569768176,-0.8484617208005354
0.6666666666666661,0.5,0.05,-0.020136321287106004,-0.031925251759852204,-0.7970460498866441
1.0,0.5,0.05,-0.07167307977509876,-0.06936947055265794,-0.7945138322286899
1.333333333333333,0.5,0.05,-0.14963214213678,-0.08178076430210415,-0.8295252865966932
1.666666666666666,0.5,0.05,-0.26735300917574645,-0.08362476088933828,-0.8823346361315674
2.0,0.5,0.05,-0.4435014380938807,-0.1091188988369654,-0.9038876839746917
2.333333333333333,0.5,0.05,-0.6813230515057633,-0.2139465169281804,-0.8011767003130525
2.666666666666666,0.5,0.05,-0.9172434116632062,-0.39142360162310275,-0.5251275765805852
3.0,0.5,0.05,-1.021709889542902,-0.4939747909379931,-0.19503796033700305
3.333333333333333,0.5,0.05,-0.9356469018644163,-0.41761373395869816,0.05095907979907251
3.666666666666666,0.5,0.05,-0.7318532478731832,-0.22606812531900528,0.19614200841054147
4.0,0.5,0.05,-0.5265998097026192,-0.034010251336159716,0.27355082820752563
-4.0,0.75,0.05,-0.4436083992652054,0.060760844273605855,0.3225130269310721
-3.6666666666666665,0.75,0.05,-0.5674955234817891,-0.054911862043771624,0.2953798889108442
-3.3333333333333335,0.75,0.05,-0.7755935169515329,-0.25126959737517496,0.22556460633648512
-3.0,0.75,0.05,-0.9691460535651466,-0.4302738499847215,0.07260702685103194
-2.666666666666667,0.75,0.05,-1.0257056820413002,-0.4650546946287739,-0.20471985202004406
-2.3333333333333335,0.75,0.05,-0.9096128412910246,-0.35281579475362435,-0.5352426374064753
-2.0,0.75,0.05,-0.7023265149914197,-0.22088936294754422,-0.7700067029533386
-1.666666666666667,0.75,0.05,-0.4947199223173748,-0.14398445994535358,-0.8639584940706873
-1.3333333333333335,0.75,0.05,-0.32696953740050316,-0.11378112790607763,-0.8664354875082245
-1.0,0.75,0.05,-0.20290568729923164,-0.10069463272404042,-0.8354565796271105
-0.666666666666667,0.75,0.05,-0.11328814624194891,-0.08150541665287389,-0.8089579538232943
-0.3333333333333335,0.75,0.05,-0.04886918632048838,-0.033884866644729505,-0.8179116976597407
0.0,0.75,0.05,-0.0023241643425280997,0.0915999397214017,-0.9196917747833226
0.33333333333333304,0.75,0.05,0.0018658551934021966,0.03892521532710285,-0.8591213140992836
0.6666666666666661,0.75,0.05,-0.020154811089836588,-0.02143290171071902,-0.810971007675803
1.0,0.75,0.05,-0.0652915707523214,-0.059503344761326266,-0.802799353239699
1.333333333333333,0.75,0.05,-0.1371002350960669,-0.07555609283440692,-0.83028835558231
1.666666666666666,0.75,0.05,-0.2472226535150796,-0.0803616978747845,-0.8775899203874986
2.0,0.75,0.05,-0.4129357693902263,-0.1040707777347144,-0.900971836452882
2.333333333333333,0.75,0.05,-0.6390437199569924,-0.19805889121546422,-0.8151068860646387
2.666666666666666,0.75,0.05,-0.8714667095996275,-0.36235332407639875,-0.5678129134960745
3.0,0.75,0.05,-0.9929338943628224,-0.47050056615225466,-0.25484457414552225
3.333333333333333,0.75,0.05,-0.9395286812380907,-0.42062164028021587,-0.0029161304158796947
3.666666666666666,0.75,0.05,-0.7644582142134848,-0.2547779512770723,0.15928604562609458
4.0,0.75,0.05,-0.5705365160271066,-0.07236249571358941,0.253277801397643
-4.0,1.0,0.05,-0.4507570958649976,0.0622040431766025,0.3330989556611158
-3.6666666666666665,1.0,0.05,-0.5611557762131558,-0.04106376620712121,0.3089782769936289
-3.3333333333333335,1.0,0.05,-0.7545902870840252,-0.2236172982686424,0.24496610198884616
-3.0,1.0,0.05,-0.9443860232603751,-0.3992753388846875,0.10305406398350034
-2.666666666666667,1.0,0.05,-1.015792331280537,-0.4493632052655063,-0.15689454806178604
-2.3333333333333335,1.0,0.05,-0.9265654595839081,-0.3607795219168429,-0.4755400864288175
-2.0,1.0,0.05,-0.7418855200186728,-0.24166463614571077,-0.7176486233058963
-1.666666666666667,1.0,0.05,-0.5441832543655046,-0.1640059903476731,-0.8324871015269572
-1.3333333333333335,1.0,0.05,-0.3756899989711789,-0.1277716675174042,-0.8559824958158038
-1.0,1.0,0.05,-0.24549076688892324,-0.10969875365455761,-0.8389858708753066
-0.666666666666667,1.0,0.05,-0.14832263327584824,-0.08876659902717149,-0.8184662047499055
-0.3333333333333335,1.0,0.05,-0.07675166369537369,-0.043579012606213746,-0.8257436216061818
0.0,1.0,0.05,-0.02407715069208568,0.07157678294010272,-0.9151944415716646
0.33333333333333304,1.0,0.05,-0.0112416447814101,0.035031834625512924,-0.8671429131744112
0.6666666666666661,1.0,0.05,-0.02550132886823897,-0.0165174902622337,-0.8230946520604843
1.0,1.0,0.05,-0.0639032627834217,-0.052879676784044816,-0.8119130229028941
1.333333333333333,1.0,0.05,-0.12926830190216076,-0.07065314281076535,-0.8336271160079566
1.666666666666666,1.0,0.05,-0.2319181426330008,-0.07760554942309458,-0.875766838769823
2.0,1.0,0.05,-0.38786409461141813,-0.10024582337269786,-0.8993310791221991
2.333333333333333,1.0,0.05,-0.602818784711212,-0.18590914707882386,-0.8258003377531646
2.666666666666666,1.0,0.05,-0.8299397639802726,-0.33877453607557584,-0.6020767745078838
3.0,1.0,0.05,-0.9624309253345442,-0.4487135323808582,-0.3064560005045609
3.333333333333333,1.0,0.05,-0.9348257169383105,-0.4182427915792567,-0.054282557997047676
3.666666666666666,1.0,0.05,-0.7859811571446313,-0.27472186206402194,0.11947742243704876
4.0,1.0,0.05,-0.6063455514062804,-0.10414309498266039,0.22749874359622313
-4.0,1.5,0.05,-0.46501932545856856,0.06508035380437321,0.35413411964608205
-3.6666666666666665,1.5,0.05,-0.5563699409700837,-0.02066534823257231,0.3342661175441922
-3.3333333333333335,1.5,0.05,-0.7258231673772579,-0.180709020762739,0.2791799459339175
-3.0,1.5,0.05,-0.904825417330938,-0.346514140219894,0.15471017375622553
-2.666666666666667,1.5,0.05,-0.9930493199231093,-0.41438531452899174,-0.0769198894811093
-2.3333333333333335,1.5,0.05,-0.9429089033292255,-0.3606565299981228,-0.3723368681767434
-2.0,1.5,0.05,-0.7973205939144943,-0.2662063342546736,-0.6181159188474854
-1.666666666666667,1.5,0.05,-0.6232611114023903,-0.19442326071820643,-0.760258314716145
-1.3333333333333335,1.5,0.05,-0.4617173200767422,-0.1535061847917509,-0.817166133182621
-1.0,1.5,0.05,-0.3272163791299096,-0.1290538166938839,-0.8271407917727303
-0.666666666666667,1.5,0.05,-0.22017274488437502,-0.10458577666227344,-0.8226280092333467
-0.3333333333333335,1.5,0.05,-0.13667839868670098,-0.06129253860180166,-0.8334263050104087
0.0,1.5,0.05,-0.07193483334069381,0.04054028804789035,-0.9088523049853658
0.33333333333333304,1.5,0.05,-0.04311659746514116,0.02488957904095472,-0.8769696795284183
0.6666666666666661,1.5,0.05,-0.041997356390092,-0.011522245882911833,-0.8405644572165896
1.0,1.5,0.05,-0.06647286487300427,-0.041861229039363575,-0.8270944155787208
1.333333333333333,1.5,0.05,-0.11867159423148554,-0.05963735836355594,-0.8410631468695888
1.666666666666666,1.5,0.05,-0.20701262593574432,-0.06871460702709047,-0.8747902903704647
2.0,1.5,0.05,-0.34534083684492767,-0.08993437426198492,-0.896765527171963
2.333333333333333,1.5,0.05,-0.5400995910040058,-0.16372642674604365,-0.8397365986405632
2.666666666666666,1.5,0.05,-0.7545771049183592,-0.2984537565553703,-0.6519718633440341
3.0,1.5,0.05,-0.8985443550648209,-0.40715593989254906,-0.38836847210259035
3.333333333333333,1.5,0.05,-0.9079425707883543,-0.40261488942234147,-0.1446152663037409
3.666666666666666,1.5,0.05,-0.8030042334234151,-0.2947544302698459,0.040314373417343036
4.0,1.5,0.05,-0.6541191341062671,-0.1489312761317304,0.16790211058492022
-4.0,2.0,0.05,-0.47958485595975703,0.06765546528371828,0.37492297085112225
-3.6666666666666665,2.0,0.05,-0.5582588751707922,-0.0064103884585215085,0.35788002761326665
-3.3333333333333335,2.0,0.05,-0.7096879905146145,-0.14952664141132743,0.3091874371592783
-3.0,2.0,0.05,-0.8776128352373066,-0.305054274285501,0.1975968845402078
-2.666666666666667,2.0,0.05,-0.9734726012049519,-0.38133925787373857,-0.012420705190044817
-2.3333333333333335,2.0,0.05,-0.9490921386365887,-0.35064613110199194,-0.2874651432078604
-2.0,2.0,0.05,-0.8338315084541903,-0.27638958330411234,-0.5300329701695711
-1.666666666666667,2.0,0.05,-0.6827144413548756,-0.2136753768273791,-0.6872397706153736
-1.3333333333333335,2.0,0.05,-0.5331300416805022,-0.17361099313288236,-0.7675430947590807
-1.0,2.0,0.05,-0.4013168316530755,-0.14695342128949643,-0.8000523533312075
-0.666666666666667,2.0,0.05,-0.2908427004208953,-0.12075485971152625,-0.8122582333299078
-0.3333333333333335,2.0,0.05,-0.20037131793753707,-0.07879783653103581,-0.8311379339677278
0.0,2.0,0.05,-0.12691016999388266,0.013667939076305424,-0.9011627964559363
0.33333333333333304,2.0,0.05,-0.08557318181436505,0.010144255616241455,-0.881017335659626
0.6666666666666661,2.0,0.05,-0.0710969818555835,-0.015004451913767527,-0.8520668301186087
1.0,2.0,0.05,-0.08242806543979539,-0.03884157155153603,-0.8393987293504893
1.333333333333333,2.0,0.05,-0.12165452680354591,-0.0542929666118559,-0.849405565419162
1.666666666666666,2.0,0.05,-0.19612379762410664,-0.06323848853256649,-0.8773921943041583
2.0,2.0,0.05,-0.3181468177867225,-0.08268716998217765,-0.8972680801074142
2.333333333333333,2.0,0.05,-0.49436291837300883,-0.14777069917893595,-0.8504447137952135
2.666666666666666,2.0,0.05,-0.6947539371023748,-0.26845099473536493,-0.6880881386205832
3.0,2.0,0.05,-0.8412801500685076,-0.37299989040144943,-0.4508353035524904
3.333333333333333,2.0,0.05,-0.8733899282274762,-0.3834903533441558,-0.2195018463722344
3.666666666666666,2.0,0.05,-0.8006575817384284,-0.3008833233680066,-0.03244113158192176
4.0,2.0,0.05,-0.6791239524454847,-0.1765252852307762,0.10603524946598772
-4.0,0.0,0.1,-0.4545800430089632,0.032007623653219665,0.277028862337188
-3.6666666666666665,0.0,0.1,-0.6631273171668152,-0.16843490953301885,0.23309800989832596
-3.3333333333333335,0.0,0.1,-0.9050164046196043,-0.40750157027520995,0.13809274176020306
-3.0,0.0,0.1,-1.0468768744557597,-0.5457570358381623,-0.0658074788776335
-2.666666666666667,0.0,0.1,-0.9779239187064328,-0.4623574259059683,-0.40998939280404384
-2.3333333333333335,0.0,0.1,-0.7434454724691124,-0.257827444837185,-0.7427676797433256
-2.0,0.0,0.1,-0.49239658556537763,-0.12650182512221064,-0.8884753647615494
-1.666666666666667,0.0,0.1,-0.3030180007821191,-0.09186064088591464,-0.8820766147048312
-1.3333333333333335,0.0,0.1,-0.17554037269370154,-0.09252796022167406,-0.8273497680318342
-1.0,0.0,0.1,-0.0901213740024147,-0.08860001457140138,-0.7812969504738727
-0.666666666666667,0.0,0.1,-0.030655899833359902,-0.06231568248069998,-0.7665582235667279
-0.3333333333333335,0.0,0.1,0.01082852728347899,0.00862062596513227,-0.8099563032724061
0.0,0.0,0.1,0.04048967057875443,0.19283438268160788,-0.9867340538043979
0.33333333333333304,0.0,0.1,0.010138027841996373,0.008340796365207476,-0.810581728709219
0.6666666666666661,0.0,0.1,-0.031819982346837826,-0.06283939902383345,-0.7675951344069836
1.0,0.0,0.1,-0.09151651027830132,-0.08926566614063769,-0.7825687953987265
1.333333333333333,0.0,0.1,-0.1770103543648114,-0.0932462983672201,-0.8287537062291764
1.666666666666666,0.0,0.1,-0.30450949503942926,-0.09258210620328022,-0.8835621860300372
2.0,0.0,0.1,-0.4939267625807934,-0.12722451717069172,-0.889983300699008
2.333333333333333,0.0,0.1,-0.7450581276521797,-0.2586112828134453,-0.7441567595125733
2.666666666666666,0.0,0.1,-0.9796063160239669,-0.4632584545981191,-0.411065289132301
3.0,0.0,0.1,-1.048472900284187,-0.5466591791883969,-0.06651883931898844
3.333333333333333,0.0,0.1,-0.9063107744226616,-0.40817987341405887,0.13763604522400255
3.666666666666666,0.0,0.1,-0.6640204637231368,-0.16878867526810465,0.2327927033431831
4.0,0.0,0.1,-0.4551314885381096,0.03191396489383335,0.27681994409596083
-4.0,0.25,0.1,-0.4548308014853904,0.027439520331354984,0.2914134358610746
-3.6666666666666665,0.25,0.1,-0.6271445336331207,-0.1367556274925887,0.25365117068722265
-3.3333333333333335,0.25,0.1,-0.8586634946203416,-0.3628011864837929,0.16672450309183026
-3.0,0.25,0.1,-1.0186842098930036,-0.5171865024343874,-0.018745225541965414
-2.666666666666667,0.25,0.1,-0.9921117083777827,-0.4762925020239188,-0.33726206156138494
-2.3333333333333335,0.25,0.1,-0.7950564362511481,-0.30019172742835437,-0.6703661990050304
-2.0,0.25,0.1,-0.5528530239545533,-0.15952887171810973,-0.8520918257059003
-1.666666666666667,0.25,0.1,-0.3528732219305456,-0.10495378587523965,-0.8807128062247385
-1.3333333333333335,0.25,0.1,-0.21144637484321105,-0.09535697987694809,-0.8412131095468882
-1.0,0.25,0.1,-0.11528355248965498,-0.09034163308270424,-0.7961168134693299
-0.666666666666667,0.25,0.1,-0.048651309752907254,-0.0678427922272522,-0.775517964637072
-0.3333333333333335,0.25,0.1,-0.002032786433260798,-0.005542200581368413,-0.8068519839631076
0.0,0.25,0.1,0.03136263501363396,0.15671418862858139,-0.9566399446923213
0.33333333333333304,0.25,0.1,0.01332468806925059,0.03598536902695954,-0.8396723767073533
0.6666666666666661,0.25,0.1,-0.023868040185114084,-0.044394131635708406,-0.7824693418167253
1.0,0.25,0.1,-0.07929202941936833,-0.08074896157026179,-0.7838939196052105
1.333333333333333,0.25,0.1,-0.15932013786125418,-0.09067048905055534,-0.8217774835902406
1.666666666666666,0.25,0.1,-0.27832566910309475,-0.09197791812271752,-0.8734659116676765
2.0,0.25,0.1,-0.4552236415299467,-0.1206912659019691,-0.8880340315437777
2.333333333333333,0.25,0.1,-0.6933591207227549,-0.23387628650617406,-0.7708976986485695
2.666666666666666,0.25,0.1,-0.9293077715236553,-0.42308296681408164,-0.4755975231039276
3.0,0.25,0.1,-1.029206021490299,-0.5275234131673913,-0.13730332074768514
3.333333333333333,0.25,0.1,-0.9309168771533992,-0.43462484536697404,0.09434913821143862
3.666666666666666,0.25,0.1,-0.7136364632371668,-0.22224128987701142,0.21698178408690194
4.0,0.25,0.1,-0.501544194626566,-0.01909872142096433,0.2773407545217432
-4.0,0.5,0.1,-0.4583634775403428,0.02782631541051283,0.2957888920838072
-3.6666666666666665,0.5,0.1,-0.6048327056924454,-0.11181820458292856,0.2637092495458426
-3.3333333333333335,0.5,0.1,-0.8203472578789449,-0.32179572648748456,0.18567421709326515
-3.0,0.5,0.1,-0.9874087021992244,-0.48303838130726684,0.017174224017481615
-2.666666666666667,0.5,0.1,-0.9920560920961201,-0.4743255732921162,-0.2771701846670791
-2.3333333333333335,0.5,0.1,-0.8304987503537714,-0.3283673079177823,-0.6022296416595843
-2.0,0.5,0.1,-0.60548688138118,-0.19093723249076971,-0.8059130345335513
-1.666666666666667,0.5,0.1,-0.40359631591845513,-0.1237426539255482,-0.8653802600920866
-1.3333333333333335,0.5,0.1,-0.25198340629669846,-0.1031668069220116,-0.8459629835977011
-1.0,0.5,0.1,-0.1452513627555045,-0.09397876275964412,-0.8077929718306704
-0.666666666666667,0.5,0.1,-0.07038909534145632,-0.07278013390716187,-0.785327573163537
-0.3333333333333335,0.5,0.1,-0.01766870782824123,-0.01682342263301096,-0.8077831459101457
0.0,0.5,0.1,0.020201418557275773,0.12835440667234566,-0.9362398549103672
0.33333333333333304,0.5,0.1,0.012028311254889016,0.04612783931993518,-0.8532958653667986
0.6666666666666661,0.5,0.1,-0.018804870151166074,-0.02854321071450064,-0.7969517142533795
1.0,0.5,0.1,-0.06930367091681094,-0.06993808193139348,-0.7893314365367277
1.333333333333333,0.5,0.1,-0.144034542822629,-0.08551302287952267,-0.8186881557113064
1.666666666666666,0.5,0.1,-0.25554421132846344,-0.08992147530797288,-0.8655924719924065
2.0,0.5,0.1,-0.42148753424967866,-0.11545285626296556,-0.8843581852879769
2.333333333333333,0.5,0.1,-0.6472478542531548,-0.21489719663814927,-0.7885488217173714
2.666666666666666,0.5,0.1,-0.8802788570926172,-0.38865370535386246,-0.5266099920376683
3.0,0.5,0.1,-1.0007167676162356,-0.5019151860717341,-0.2042647158119591
3.333333333333333,0.5,0.1,-0.9394525438452507,-0.4423209646191003,0.03978779046080272
3.666666666666666,0.5,0.1,-0.7517359372607069,-0.25835720468801976,0.183623162348846
4.0,0.5,0.1,-0.5476146224018762,-0.06204930291059305,0.26039414784471127
-4.0,0.75,0.1,-0.46200969727578184,0.028080714883544765,0.3001527301418599
-3.6666666666666665,0.75,0.1,-0.5897110142037544,-0.09374772884734242,0.2722135285264805
-3.3333333333333335,0.75,0.1,-0.7895673263233114,-0.2882404224377961,0.2015539300691342
-3.0,0.75,0.1,-0.9577224759204654,-0.45052006793863664,0.047163641706200854
-2.666666666666667,0.75,0.1,-0.9847492306838571,-0.4648648882295018,-0.22621806215884488
-2.3333333333333335,0.75,0.1,-0.8540293766191163,-0.3459426231681927,-0.5402720267153032
-2.0,0.75,0.1,-0.6493509364307888,-0.21780066170616563,-0.7566603061308295
-1.666666666666667,0.75,0.1,-0.45207814631982335,-0.14477135319945833,-0.840850920225922
-1.3333333333333335,0.75,0.1,-0.29525398263313585,-0.1155716017574763,-0.8419586062939082
-1.0,0.75,0.1,-0.18014832892803082,-0.10137953657899736,-0.8144400397625429
-0.666666666666667,0.75,0.1,-0.09734383566691301,-0.07972125216752654,-0.793933204173939
-0.3333333333333335,0.75,0.1,-0.03801562314172783,-0.02808771973448517,-0.8108108104982688
0.0,0.75,0.1,0.005102240609804094,0.10366345479380736,-0.9223916107126273
0.33333333333333304,0.75,0.1,0.00593700744365222,0.04685304307218387,-0.8604829593708805
0.6666666666666661,0.75,0.1,-0.0177182920065667,-0.018315929052088155,-0.8086957228910383
1.0,0.75,0.1,-0.062429116502098564,-0.06018290688869506,-0.7961714296586576
1.333333333333333,0.75,0.1,-0.13153047084565,-0.0793279711867107,-0.818510232333514
1.666666666666666,0.75,0.1,-0.23595915889498872,-0.08664838781026583,-0.8602119317730178
2.0,0.75,0.1,-0.39202749435752876,-0.11060095226364247,-0.8805677694411416
2.333333333333333,0.75,0.1,-0.606221910710867,-0.19979788412327412,-0.800393954267673
2.666666666666666,0.75,0.1,-0.83410050918634,-0.3599759641357231,-0.566255725809482
3.0,0.75,0.1,-0.9678290365511457,-0.4762538176725173,-0.26231222466522475
3.333333333333333,0.75,0.1,-0.9361947983835215,-0.44099264209815736,-0.014517136733876779
3.666666666666666,0.75,0.1,-0.7770612606950995,-0.2831325636638044,0.14463150137040057
4.0,0.75,0.1,-0.586349994204086,-0.09855528671802202,0.23672156717817464
-4.0,1.0,0.1,-0.46553697747342093,0.028466356724631863,0.30450298324049346
-3.6666666666666665,1.0,0.1,-0.57885720749366,-0.07969848027677263,0.2797238641166255
-3.3333333333333335,1.0,0.1,-0.7642817378542686,-0.25999819858461914,0.21522426081495621
-3.0,1.0,0.1,-0.9300007626597656,-0.41987258080991824,0.07281856613849036
-2.666666666666667,1.0,0.1,-0.9725657855039971,-0.4503234543227837,-0.18214868295316963
-2.3333333333333335,1.0,0.1,-0.8673433930226553,-0.35414575716260516,-0.4839505621228789
-2.0,1.0,0.1,-0.6828845173584575,-0.237438684858167,-0.7067531798075145
-1.666666666666667,1.0,0.1,-0.49383712142695224,-0.16315793471366363,-0.8097826327488885
-1.3333333333333335,1.0,0.1,-0.33577981471612217,-0.12813862643905724,-0.8295989902803356
-1.0,1.0,0.1,-0.21488179719968248,-0.10936880632898059,-0.8142266634632782
-0.666666666666667,1.0,0.1,-0.12523514109948958,-0.08632202166496813,-0.7985140532289625
-0.3333333333333335,1.0,0.1,-0.05954668659441487,-0.037381176378221775,-0.8130860248345256
0.0,1.0,0.1,-0.011087471238405883,0.08394735773499779,-0.912256727019406
0.33333333333333304,1.0,0.1,-0.0023472382058446943,0.04433461303096363,-0.8643365298716168
0.6666666666666661,1.0,0.1,-0.019105780413058084,-0.011664129169512153,-0.8176734438985898
1.0,1.0,0.1,-0.05795747921999222,-0.05189644725095713,-0.8027983458966539
1.333333333333333,1.0,0.1,-0.12143045522569329,-0.07292863855454089,-0.8198642465753143
1.666666666666666,1.0,0.1,-0.21916293650197644,-0.08254650587434259,-0.8567783040217561
2.0,1.0,0.1,-0.36622412870489285,-0.10571252782353899,-0.8773140500999939
2.333333333333333,1.0,0.1,-0.5696775774507955,-0.1871108090574071,-0.8087664364379359
2.666666666666666,1.0,0.1,-0.7912736664456332,-0.33567273171673695,-0.597628262851477
3.0,1.0,0.1,-0.9333659093324046,-0.45195202086652575,-0.3120419927252671
3.333333333333333,1.0,0.1,-0.9251273369623594,-0.4345148017007799,-0.06575738179669144
3.666666666666666,1.0,0.1,-0.791859191365163,-0.2992391866216638,0.1034474870535915
4.0,1.0,0.1,-0.6168775434330169,-0.1281402703704452,0.20835178936632778
-4.0,1.5,0.1,-0.4725842057551391,0.029235263676800866,0.3131658947748996
-3.6666666666666665,1.5,0.1,-0.5654382395992736,-0.05948325106676817,0.2928836331455434
-3.3333333333333335,1.5,0.1,-0.7268135348360296,-0.2162473826037375,0.23792216898406965
-3.0,1.5,0.1,-0.8835175118823441,-0.36730930165298536,0.11452275008771748
-2.666666666666667,1.5,0.1,-0.9444023015013521,-0.41698776055766246,-0.11018475360780966
-2.3333333333333335,1.5,0.1,-0.877075855802798,-0.35498475910200145,-0.3877150072559207
-2.0,1.5,0.1,-0.7285542432450186,-0.261153328552692,-0.6127132958009198
-1.666666666666667,1.5,0.1,-0.5602977885898541,-0.19170557900534824,-0.7401249521603417
-1.3333333333333335,1.5,0.1,-0.4077674088566146,-0.15193932570702506,-0.789776549943096
-1.0,1.5,0.1,-0.2825858509682322,-0.12732044407389187,-0.798129538009337
-0.666666666666667,1.5,0.1,-0.1841745533988439,-0.10165299543859856,-0.795944205618339
-0.3333333333333335,1.5,0.1,-0.10848037844277954,-0.05600059830844502,-0.8122721780870259
0.0,1.5,0.1,-0.05051921506378913,0.049827890064507656,-0.8960050273752201
0.33333333333333304,1.5,0.1,-0.0282178610846334,0.03180982331409293,-0.8664206586436223
0.6666666666666661,1.5,0.1,-0.031931278253238105,-0.008561489435012747,-0.8296603493134701
1.0,1.5,0.1,-0.0588756903763158,-0.04270165617732207,-0.8142399265758162
1.333333333333333,1.5,0.1,-0.11079558004329007,-0.0638094996675863,-0.8248503082900482
1.666666666666666,1.5,0.1,-0.19551495257836593,-0.07561751445302708,-0.8542574620121992
2.0,1.5,0.1,-0.3260474355748186,-0.09756952630307421,-0.8734589051713115
2.333333333333333,1.5,0.1,-0.509815316440492,-0.16759201990959427,-0.8205444105214852
2.666666666666666,1.5,0.1,-0.7172522955613256,-0.2975280191683073,-0.6443835255417605
3.0,1.5,0.1,-0.8666273710162729,-0.409706925197695,-0.39176119190442826
3.333333333333333,1.5,0.1,-0.8909602089421662,-0.4151701039440795,-0.15601136904293827
3.666666666666666,1.5,0.1,-0.7996991712777592,-0.31486134025600904,0.02231371691042089
4.0,1.5,0.1,-0.6563510891111292,-0.1700183172380504,0.14491787296157582
-4.0,2.0,0.1,-0.4796214897890936,0.030001454145510104,0.3217789226195026
-3.6666666666666665,2.0,0.1,-0.5586100291276768,-0.045541109579096614,0.30454272664253135
-3.3333333333333335,2.0,0.1,-0.7013479648459213,-0.18413087220560984,0.25655820236139093
-3.0,2.0,0.1,-0.8476759562720408,-0.32508704379956005,0.14746188303464214
-2.666666666666667,2.0,0.1,-0.917182361957503,-0.38411220024635584,-0.053643438353477985
-2.3333333333333335,2.0,0.1,-0.8751759178263434,-0.34508486232922364,-0.30925664286257426
-2.0,2.0,0.1,-0.755098890931041,-0.2705395978365279,-0.529422146208619
-1.666666666666667,2.0,0.1,-0.6076600679650188,-0.20940850907175762,-0.6695113965878128
-1.3333333333333335,2.0,0.1,-0.4655461654097533,-0.1701924412717537,-0.7396658459229897
-1.0,2.0,0.1,-0.34230236754710147,-0.14341937479582037,-0.7676590821845863
-0.666666666666667,2.0,0.1,-0.24041548298451013,-0.11632494864349115,-0.7796134505087298
-0.3333333333333335,2.0,0.1,-0.15826823981974808,-0.07254487705994725,-0.8018890701054247
0.0,2.0,0.1,-0.09259325683127845,0.023176898872992333,-0.8786304158273821
0.33333333333333304,2.0,0.1,-0.05904003341912846,0.018187641668931418,-0.8616417412429926
0.6666666666666661,2.0,0.1,-0.05097411141431612,-0.010223234340521779,-0.8336280487528572
1.0,2.0,0.1,-0.06649541603755155,-0.037627753165856315,-0.8202129918003247
1.333333333333333,2.0,0.1,-0.10714879487468874,-0.05646995205100608,-0.8279074955774364
1.666666666666666,2.0,0.1,-0.17961831631475575,-0.06833237550339023,-0.8524487444757656
2.0,2.0,0.1,-0.2953556036289137,-0.08884373662106197,-0.8700658574952255
2.333333333333333,2.0,0.1,-0.46167043637963173,-0.15066879116442855,-0.8272208933396485
2.666666666666666,2.0,0.1,-0.65469708317245,-0.2664120709523096,-0.6763314436667153
3.0,2.0,0.1,-0.8044004414814017,-0.3727576931358085,-0.4511928239010451
3.333333333333333,2.0,0.1,-0.8488308097177629,-0.3914611481957656,-0.22975661471461423
3.666666666666666,2.0,0.1,-0.7886523750892369,-0.31617256833196644,-0.051119831308208546
4.0,2.0,0.1,-0.6733480859900319,-0.19410078184117718,0.08072591477570748
-4.0,0.0,0.15,-0.4851825245534952,-2.2510352277035955e-05,0.27394467617313856
-3.6666666666666665,0.0,0.15,-0.6980313395225562,-0.21034373579571913,0.2290488953777696
-3.3333333333333335,0.0,0.15,-0.9246731380052515,-0.4432905324159408,0.1316542674005324
-3.0,0.0,0.15,-1.0357097814287926,-0.5588460370003993,-0.07774177622606133
-2.666666666666667,0.0,0.15,-0.9427228722695118,-0.45759946063265333,-0.4196500809085212
-2.3333333333333335,0.0,0.15,-0.7075210637948537,-0.256175227593418,-0.7363099379729678
-2.0,0.0,0.15,-0.4684206946484721,-0.1321060630084723,-0.8716632248469864
-1.666666666666667,0.0,0.15,-0.29001485436205765,-0.09836582900988372,-0.8666685862121764
-1.3333333333333335,0.0,0.15,-0.16962123371193263,-0.09673025660743788,-0.8178768123115774
-1.0,0.0,0.15,-0.08852244899791463,-0.08987873077108306,-0.7781687216052429
-0.666666666666667,0.0,0.15,-0.03172833886884032,-0.06008213975437651,-0.7697971539046942
-0.3333333333333335,0.0,0.15,0.008415156053548423,0.01598733897992604,-0.82033653272097
0.0,0.0,0.15,0.038384662637073394,0.20747675968168663,-1.00493535670626
0.33333333333333304,0.0,0.15,0.007745236932567454,0.015718963738669524,-0.8209462920989966
0.6666666666666661,0.0,0.15,-0.032864217623187086,-0.06058852940564253,-0.7708120399790023
1.0,0.0,0.15,-0.08989266836218963,-0.09052781017732778,-0.7794184134513034
1.333333333333333,0.0,0.15,-0.17107292458186718,-0.09743693194081024,-0.8192593573331207
1.666666666666666,0.0,0.15,-0.2914924076907227,-0.09908231262869938,-0.8681321625719662
2.0,0.0,0.15,-0.4699359033056615,-0.13282910235272372,-0.8731500989836812
2.333333333333333,0.0,0.15,-0.7091134624415784,-0.2569590728219594,-0.7376885483503933
2.666666666666666,0.0,0.15,-0.9443880778778702,-0.4585019062253714,-0.4207339844176023
3.0,0.0,0.15,-1.0373139383683148,-0.5597704777721204,-0.07846828399231659
3.333333333333333,0.0,0.15,-0.9260094217239336,-0.4440178491689232,0.13118501636657465
3.666666666666666,0.0,0.15,-0.6989826088046639,-0.2107535406416516,0.22873261131467262
4.0,0.0,0.15,-0.48578431404391054,-0.00015803140838699002,0.273725574097042
-4.0,0.25,0.15,-0.484233879128089,-0.004933002481097368,0.286012672936206
-3.6666666666666665,0.25,0.15,-0.6609430885382099,-0.17803939630205307,0.24726259769461262
-3.3333333333333335,0.25,0.15,-0.8804331885431275,-0.40045535661997533,0.15810133771130896
-3.0,0.25,0.15,-1.0118151493313057,-0.5345265277908283,-0.03243810142757865
-2.666666666666667,0.25,0.15,-0.9588507487408842,-0.47397082789081113,-0.35001748198541655
-2.3333333333333335,0.25,0.15,-0.7555671477401544,-0.2963911530749514,-0.668812226987632
-2.0,0.25,0.15,-0.5222292059624467,-0.16208360822980866,-0.8377730575574385
-1.666666666666667,0.25,0.15,-0.33357081171225295,-0.11017913463924431,-0.8639875543550881
-1.3333333333333335,0.25,0.15,-0.2007016491670758,-0.09952797512351709,-0.8284924348489666
-1.0,0.25,0.15,-0.11014731747003395,-0.09196016376623614,-0.7893991997819705
-0.666666666666667,0.25,0.15,-0.04710106509136432,-0.06602553138096375,-0.7754056161096105
-0.3333333333333335,0.25,0.15,-0.0025689390344204666,0.0013105534235076412,-0.8142930007667981
0.0,0.25,0.15,0.03037893890610112,0.17102232053789024,-0.9728312727219639
0.33333333333333304,0.25,0.15,0.01141964362866346,0.04355353320360483,-0.8492849455765233
0.6666666666666661,0.25,0.15,-0.025103929603830438,-0.0419014143345306,-0.7857078329262766
1.0,0.25,0.15,-0.0783925834466396,-0.08171709581654102,-0.7812921709260193
1.333333333333333,0.25,0.15,-0.1546399330309297,-0.09447486706123917,-0.8132004227067025
1.666666666666666,0.25,0.15,-0.2673313559261916,-0.0981233807150666,-0.8590254880866544
2.0,0.25,0.15,-0.4343159027777706,-0.1266667318491444,-0.8711506848856779
2.333333333333333,0.25,0.15,-0.6610155231808892,-0.2342788415684423,-0.7613608574693577
2.666666666666666,0.25,0.15,-0.8951835684125851,-0.42013626373704616,-0.4798700405698084
3.0,0.25,0.15,-1.0133905614575558,-0.5377665055752183,-0.14627368227985027
3.333333333333333,0.25,0.15,-0.9424228035808222,-0.464509654815507,0.08776619309790826
3.666666666666666,0.25,0.15,-0.7420101140410867,-0.26009976979501825,0.21172124718678464
4.0,0.25,0.15,-0.5296962424887734,-0.05065198323990479,0.272562525125952
-4.0,0.5,0.15,-0.48639365564765097,-0.004880069907778386,0.28823774518880274
-3.6666666666666665,0.5,0.15,-0.6369855284903242,-0.15242170521873685,0.2552167060930312
-3.3333333333333335,0.5,0.15,-0.8428142700880553,-0.36033114811211214,0.17508905966422386
-3.0,0.5,0.15,-0.9838307069677033,-0.503723842788169,0.0019426318718533883
-2.666666666666667,0.5,0.15,-0.961579204813829,-0.47517200607300614,-0.29219813758650015
-2.3333333333333335,0.5,0.15,-0.7898617937546764,-0.3244443746286231,-0.6046730081042397
-2.0,0.5,0.15,-0.5701205366477912,-0.19136989662101403,-0.7948513400268356
-1.666666666666667,0.5,0.15,-0.37844077568467094,-0.12725597048712772,-0.8491524779969166
-1.3333333333333335,0.5,0.15,-0.2359616303278576,-0.10664401494100416,-0.8314080443407383
-1.0,0.5,0.15,-0.13590501874316058,-0.0955651242399276,-0.7981142873159535
-0.666666666666667,0.5,0.15,-0.06562167538653395,-0.07126016883114261,-0.7819572332221459
-0.3333333333333335,0.5,0.15,-0.015837549435175836,-0.010505437888928111,-0.8120669116199595
0.0,0.5,0.15,0.020778020065372976,0.14203342920240178,-0.9497811673570552
0.33333333333333304,0.5,0.15,0.011071314419480782,0.054168736087280726,-0.862051253879494
0.6666666666666661,0.5,0.15,-0.01980033927479965,-0.025659576623783358,-0.7999588759687103
1.0,0.5,0.15,-0.0687695349626253,-0.07065161750969615,-0.786919408417464
1.333333333333333,0.5,0.15,-0.14026970594400873,-0.0890476615894271,-0.8106934426116006
1.666666666666666,0.5,0.15,-0.24613568799388907,-0.09577821577184441,-0.8519571035537603
2.0,0.5,0.15,-0.4030612214839764,-0.12155205993676486,-0.8677482898165879
2.333333333333333,0.5,0.15,-0.6180009448637639,-0.21658051718035812,-0.7772526764903402
2.666666666666666,0.5,0.15,-0.8478208998184229,-0.3871574164591748,-0.5270311949335462
3.0,0.5,0.15,-0.9824317049028559,-0.51074195242277,-0.21016443800508494
3.333333333333333,0.5,0.15,-0.9449543936724634,-0.4680953356404206,0.03428926400451386
3.666666666666666,0.5,0.15,-0.7740024761135338,-0.29249220779101404,0.178245940174628
4.0,0.5,0.15,-0.5721620325601731,-0.09220109775181574,0.2547483472780717
-4.0,0.75,0.15,-0.4885528781570356,-0.004827388875124528,0.2904579355463645
-3.6666666666666665,0.75,0.15,-0.6199003485919208,-0.13353154303253706,0.26165823090670776
-3.3333333333333335,0.75,0.15,-0.8115027353453943,-0.32667964455741766,0.1890995322129414
-3.0,0.75,0.15,-0.955800140215771,-0.4730227154199834,0.030568514799069788
-2.666666666666667,0.75,0.15,-0.956206852842507,-0.4679911279053677,-0.24282031608287466
-2.3333333333333335,0.75,0.15,-0.8126519750377394,-0.3421229595196476,-0.5455302430423474
-2.0,0.75,0.15,-0.609893001462529,-0.2162371306864891,-0.7483191480275292
-1.666666666666667,0.75,0.15,-0.4209016921901636,-0.1458022488508756,-0.8255016792231574
-1.3333333333333335,0.75,0.15,-0.2728004273322337,-0.11696217001599506,-0.8261731997730313
-1.0,0.75,0.15,-0.16478741334240216,-0.10135884097855369,-0.8020865576264071
-0.666666666666667,0.75,0.15,-0.08728105053132756,-0.07693068409854223,-0.7872065688350973
-0.3333333333333335,0.75,0.15,-0.03172790762256,-0.020762266352547014,-0.8116369958077474
0.0,0.75,0.15,0.009176660876111142,0.1181784126584239,-0.9329199145399717
0.33333333333333304,0.75,0.15,0.007498499264550297,0.056387907805901596,-0.8678348335375425
0.6666666666666661,0.75,0.15,-0.017256548866357142,-0.014212873625557284,-0.8110623547938913
1.0,0.75,0.15,-0.061371998508626985,-0.06011685512345949,-0.7935729617523805
1.333333333333333,0.75,0.15,-0.12802649466242014,-0.08234623806168037,-0.8107314159415397
1.666666666666666,0.75,0.15,-0.2275749071989208,-0.0921190149777828,-0.8470928588910087
2.0,0.75,0.15,-0.37549260490000985,-0.11664740610696864,-0.864250475760757
2.333333333333333,0.75,0.15,-0.5795346125825286,-0.20227615406082303,-0.7880290879246212
2.666666666666666,0.75,0.15,-0.8033959514067184,-0.3595385071153936,-0.5639449028247447
3.0,0.75,0.15,-0.9483136779786107,-0.484264919936284,-0.2656091710899828
3.333333333333333,0.75,0.15,-0.937423941595393,-0.46384068376471366,-0.018596370107721902
3.666666666666666,0.75,0.15,-0.7942689080399372,-0.31420845232879824,0.13973800596805563
4.0,0.75,0.15,-0.6072421641446115,-0.12712620144533118,0.23082375183409384
-4.0,1.0,0.15,-0.4908511931947914,-0.004933381517989889,0.2926741679940818
-3.6666666666666665,1.0,0.15,-0.6075190926107238,-0.11927836026783421,0.26710747811950836
-3.3333333333333335,1.0,0.15,-0.785975853815513,-0.29893295602083225,0.2008557201970264
-3.0,1.0,0.15,-0.9301069113522036,-0.44481515232656743,0.05465480471478626
-2.666666666666667,1.0,0.15,-0.9471507649959323,-0.4569965842620721,-0.20056678697583924
-2.3333333333333335,1.0,0.15,-0.8277464005380726,-0.35277404314446403,-0.49224478243472547
-2.0,1.0,0.15,-0.6427756721254025,-0.2367242395665732,-0.7019017648313571
-1.666666666666667,1.0,0.15,-0.4602502354357676,-0.1643784444842265,-0.7969336582798558
-1.3333333333333335,1.0,0.15,-0.31029447811872995,-0.12984590333601403,-0.8147319346499308
-1.0,1.0,0.15,-0.19668468851188128,-0.11008398298819008,-0.8013831524961101
-0.666666666666667,1.0,0.15,-0.11290793359821094,-0.08473187142149277,-0.7902783443162352
-0.3333333333333335,1.0,0.15,-0.05165037013448612,-0.031737479980543354,-0.8116760814446313
0.0,1.0,0.15,-0.0060337367065357965,0.09628790414880993,-0.9200345108238615
0.33333333333333304,1.0,0.15,-0.00010467179940707371,0.053001372425884104,-0.8702933947329969
0.6666666666666661,1.0,0.15,-0.01830087183480894,-0.007762637238966575,-0.8194784063930366
1.0,1.0,0.15,-0.05693398297414115,-0.05182355908492,-0.8000773107019674
1.333333333333333,1.0,0.15,-0.11837226238526807,-0.07586506736041049,-0.8122771918512004
1.666666666666666,1.0,0.15,-0.2117313414606893,-0.08789190440975181,-0.8440910373691883
2.0,1.0,0.15,-0.3513044729690024,-0.11178815344818796,-0.8613119974424543
2.333333333333333,1.0,0.15,-0.5451852624412752,-0.19018931861085375,-0.7957513588530198
2.666666666666666,1.0,0.15,-0.7622758187355108,-0.33605239442741675,-0.5933623164367945
3.0,1.0,0.15,-0.9133368194770572,-0.4594463256114473,-0.31325968675848087
3.333333333333333,1.0,0.15,-0.92331047339692,-0.4551896253220006,-0.06845396391873061
3.666666666666666,1.0,0.15,-0.8050083550020593,-0.32783999015075366,0.09929264028195219
4.0,1.0,0.15,-0.6344454512426638,-0.15521919303883774,0.20260434481460252
-4.0,1.5,0.15,-0.49516643449243114,-0.004828676927068337,0.29709022056695805
-3.6666666666666665,1.5,0.15,-0.5906389042791667,-0.09842361241784256,0.2761700815586413
-3.3333333333333335,1.5,0.15,-0.7463542801887723,-0.2548946606858952,0.21980142632078864
-3.0,1.5,0.15,-0.8846177418169712,-0.3944390428396997,0.09340398234841973
-2.666666666666667,1.5,0.15,-0.9221481972570766,-0.42787540348744446,-0.13137989432967573
-2.3333333333333335,1.5,0.15,-0.8394435806020111,-0.35693069954134676,-0.40015087741717353
-2.0,1.5,0.15,-0.68696805347842,-0.26151754325751037,-0.612851465277191
-1.666666666666667,1.5,0.15,-0.5219124611843525,-0.19248545272437462,-0.731268846630138
-1.3333333333333335,1.5,0.15,-0.37539979741668983,-0.15268095450393035,-0.7767390179212561
-1.0,1.5,0.15,-0.2566586293777292,-0.12711604238914853,-0.7847750189315935
-0.666666666666667,1.5,0.15,-0.16411190177554708,-0.0994225246455141,-0.7852042725179857
-0.3333333333333335,1.5,0.15,-0.0933245011111628,-0.050087028549343104,-0.8068605881884567
0.0,1.5,0.15,-0.03896161075661455,0.06212501996679008,-0.8989121861432046
0.33333333333333304,1.5,0.15,-0.0202480617175708,0.04193782054263584,-0.8690057831264605
0.6666666666666661,1.5,0.15,-0.026422139035723116,-0.0024640962243587076,-0.8292679161436374
1.0,1.5,0.15,-0.05431065994871306,-0.040372840930452736,-0.8100722926946892
1.333333333333333,1.5,0.15,-0.10541394043071153,-0.06467177917498265,-0.8164040025238655
1.666666666666666,1.5,0.15,-0.18706757700831422,-0.07910279955391974,-0.8412103265394602
2.0,1.5,0.15,-0.31158753302313735,-0.1022051849575956,-0.8571465656427328
2.333333333333333,1.5,0.15,-0.48711761870055353,-0.1701649606437997,-0.8061205590768908
2.666666666666666,1.5,0.15,-0.6898721022687608,-0.2978696761808418,-0.6370417011299263
3.0,1.5,0.15,-0.8454648440787221,-0.4155309676222805,-0.3896638624369589
3.333333333333333,1.5,0.15,-0.8844469033667113,-0.43197042806262687,-0.15622799955557037
3.666666666666666,1.5,0.15,-0.8063955857202716,-0.33913904062545486,0.019828164829465852
4.0,1.5,0.15,-0.668158286404692,-0.1941828757036729,0.14004713802335841
-4.0,2.0,0.15,-0.49934125285501224,-0.004567985426143661,0.30148598929831194
-3.6666666666666665,2.0,0.15,-0.580286527475737,-0.0839335170998173,0.2837415843163864
-3.3333333333333335,2.0,0.15,-0.7179009749127105,-0.22204346613697856,0.23467613656985492
-3.0,2.0,0.15,-0.8478052698885397,-0.3528852043554558,0.12333602013617251
-2.666666666666667,2.0,0.15,-0.8958167324990396,-0.3972757125671019,-0.07733442347899566
-2.3333333333333335,2.0,0.15,-0.8382706871911135,-0.34923553077527636,-0.3247652521072301
-2.0,2.0,0.15,-0.7122572923645729,-0.27187086139711336,-0.5332348546543889
-1.666666666666667,2.0,0.15,-0.5655734401376724,-0.20999554457648106,-0.6639492879800204
-1.3333333333333335,2.0,0.15,-0.42750543024568094,-0.17007892077248057,-0.7286935851395553
-1.0,2.0,0.15,-0.3095391303243298,-0.14216450278862827,-0.7548043969953158
-0.666666666666667,2.0,0.15,-0.21319813471835666,-0.11326511543522505,-0.767853045392212
-0.3333333333333335,2.0,0.15,-0.13644008680813655,-0.06651194834047204,-0.7941229379155418
0.0,2.0,0.15,-0.07558640934325757,0.034197461426903594,-0.8779359986094336
0.33333333333333304,2.0,0.15,-0.04704573153824303,0.02726557351012971,-0.8615607961738858
0.6666666666666661,2.0,0.15,-0.042990928069111395,-0.004991001251421545,-0.8317653041095892
1.0,2.0,0.15,-0.06093715987103509,-0.03622424784110813,-0.8155657275191708
1.333333333333333,2.0,0.15,-0.10209208901811734,-0.058421659067631214,-0.8197549420566627
1.666666666666666,2.0,0.15,-0.17269542553699285,-0.07307123669155435,-0.8402839421051909
2.0,2.0,0.15,-0.28360172584870297,-0.0949934939214741,-0.8548404729004355
2.333333333333333,2.0,0.15,-0.4426996957810528,-0.15531262510796545,-0.8132371694092818
2.666666666666666,2.0,0.15,-0.6310181513106512,-0.2690680945281289,-0.6682076477956045
3.0,2.0,0.15,-0.7850307594716696,-0.3796827817739845,-0.44779887945359126
3.333333333333333,2.0,0.15,-0.841289109143226,-0.4075150097478102,-0.22881868275633255
3.666666666666666,2.0,0.15,-0.792387176531439,-0.3388179374190749,-0.052644021437354166
4.0,2.0,0.15,-0.6818829611874705,-0.21704388511986009,0.07655645034726336
-4.0,0.0,0.2,-0.5168181150571116,-0.034399350376761534,0.27117182173500537
-3.6666666666666665,0.0,0.2,-0.7309159638055879,-0.25245474695689335,0.22554902739386865
-3.3333333333333335,0.0,0.2,-0.9395931432049311,-0.47656263377863706,0.12540869964983217
-3.0,0.0,0.2,-1.0204036042998392,-0.5689378076140668,-0.0896648295310854
-2.666666666666667,0.0,0.2,-0.9068376897378788,-0.4521228596295787,-0.42831389453209
-2.3333333333333335,0.0,0.2,-0.6731536225160565,-0.2549112561136644,-0.7292226787051873
-2.0,0.0,0.2,-0.445878668450882,-0.13763603682713715,-0.8553157598907991
-1.666666666666667,0.0,0.2,-0.2777807613000424,-0.10461534864224097,-0.8519128776208711
-1.3333333333333335,0.0,0.2,-0.1640388447547362,-0.10078863931300228,-0.808792201869534
-1.0,0.0,0.2,-0.0870489340046522,-0.09114026398310836,-0.7751666997310374
-0.666666666666667,0.0,0.2,-0.03281491584356626,-0.05790851625845671,-0.7729777294363717
-0.3333333333333335,0.0,0.2,0.006064671141630578,0.02323405322092688,-0.8305047137493032
0.0,0.0,0.2,0.03636852956615683,0.22187089519192738,-1.022750257986147
0.33333333333333304,0.0,0.2,0.005414486536330531,0.022976542994523293,-0.8310993428423287
0.6666666666666661,0.0,0.2,-0.03392327821201825,-0.058398268977976106,-0.7739709830691475
1.0,0.0,0.2,-0.08839421991268523,-0.09177312743150336,-0.7763942556577942
1.333333333333333,0.0,0.2,-0.16547168811913834,-0.10148349956349019,-0.8101532547066088
1.666666666666666,0.0,0.2,-0.279243794231893,-0.1053261692307762,-0.8533545879263834
2.0,0.0,0.2,-0.447378930485709,-0.13835847643390342,-0.8567818160727882
2.333333333333333,0.0,0.2,-0.6747263625640383,-0.25569438281045437,-0.7305902589406424
2.666666666666666,0.0,0.2,-0.9084847504159175,-0.4530250685786384,-0.4294046630963777
3.0,0.0,0.2,-1.0220115582087532,-0.5698805694016835,-0.09040621032329746
3.333333333333333,0.0,0.2,-0.9409662299972522,-0.47733551381049616,0.12492714079283668
3.666666666666666,0.0,0.2,-0.7319234639500354,-0.2529207343163915,0.22522228674342235
4.0,0.0,0.2,-0.5174721011952783,-0.03457994538864732,0.270942834084806
-4.0,0.25,0.2,-0.515396990704832,-0.039451652767187775,0.28214962756751283
-3.6666666666666665,0.25,0.2,-0.694183304898975,-0.21999513027326423,0.24257436793556603
-3.3333333333333335,0.25,0.2,-0.8990940921043625,-0.4364114750072361,0.15077910641064152
-3.0,0.25,0.2,-1.0020029765426133,-0.5494044746789575,-0.04535563823520117
-2.666666666666667,0.25,0.2,-0.9257152021348873,-0.47098684675595454,-0.3616513615716847
-2.3333333333333335,0.25,0.2,-0.718757273169863,-0.2932088359169338,-0.6667293732376771
-2.0,0.25,0.2,-0.49458704788511043,-0.1649806724492216,-0.8243275009779103
-1.666666666666667,0.25,0.2,-0.3165464171905159,-0.11537970010913358,-0.8488162632879604
-1.3333333333333335,0.25,0.2,-0.19153972979549183,-0.10361960562591162,-0.8173063188529943
-1.0,0.25,0.2,-0.10613405273948878,-0.0935709656736426,-0.7839633140725566
-0.666666666666667,0.25,0.2,-0.04637273920944436,-0.06425340737605366,-0.7763155035701946
-0.3333333333333335,0.25,0.2,-0.003682874414146612,0.008114216594379605,-0.8225194304605236
0.0,0.25,0.2,0.0290245589257,0.18526022841816459,-0.9895561797369717
0.33333333333333304,0.25,0.2,0.009277755000864061,0.05102756351418554,-0.859245625414413
0.6666666666666661,0.25,0.2,-0.02652271925568717,-0.039467569787755674,-0.7892593677398397
1.0,0.25,0.2,-0.07771230725679526,-0.08266395662894493,-0.7790975471267189
1.333333333333333,0.25,0.2,-0.15035004037629418,-0.09812447444537027,-0.8052592654123194
1.666666666666666,0.25,0.2,-0.2571269664975788,-0.10396474632825774,-0.8455247438503075
2.0,0.25,0.2,-0.4148543647722088,-0.13235668970632622,-0.8552604919661653
2.333333333333333,0.25,0.2,-0.6304438197620811,-0.23452273999426826,-0.7523044819735714
2.666666666666666,0.25,0.2,-0.8613333842334325,-0.4157258976677638,-0.48488101543266127
3.0,0.25,0.2,-0.9952368519303252,-0.5438754756354263,-0.15775915017814007
3.333333333333333,0.25,0.2,-0.9511851025265899,-0.4893258257003984,0.07714725207663903
3.666666666666666,0.25,0.2,-0.7703902718098047,-0.2939641955365152,0.20077973035511776
4.0,0.25,0.2,-0.5615503787876828,-0.07933603966269437,0.2599666020762044
-4.0,0.5,0.2,-0.516907611718749,-0.03953093901917243,0.283447040063216
-3.6666666666666665,0.5,0.2,-0.6698497165082509,-0.19397530810673722,0.24958898554916037
-3.3333333333333335,0.5,0.2,-0.8637767143484938,-0.39789144406178667,0.16692155868765646
-3.0,0.5,0.2,-0.9786841508019353,-0.5225949561199505,-0.011655305921351396
-2.666666666666667,0.5,0.2,-0.9321524908130359,-0.47554479767300234,-0.3058112295431286
-2.3333333333333335,0.5,0.2,-0.7528250691355829,-0.3212386460604242,-0.6066252320006746
-2.0,0.5,0.2,-0.5389862737028641,-0.19241361161062454,-0.7849171522024189
-1.666666666666667,0.5,0.2,-0.3569693769704748,-0.13101210429951682,-0.8350828363277562
-1.3333333333333335,0.5,0.2,-0.22284201931860276,-0.11020533771190565,-0.8192909375041283
-1.0,0.5,0.2,-0.12881322523959524,-0.097220692094503,-0.7907612901213215
-0.666666666666667,0.5,0.2,-0.0626140119633247,-0.06980487775408911,-0.7806729847192826
-0.3333333333333335,0.5,0.2,-0.015340905263373622,-0.004191449335549789,-0.8181652552342757
0.0,0.5,0.2,0.02041138224874649,0.1557975959750185,-0.9648445227195868
0.33333333333333304,0.5,0.2,0.009471392336429595,0.062162075105564915,-0.8718449174980741
0.6666666666666661,0.5,0.2,-0.021241707697660615,-0.02283127318122855,-0.8037552144048907
1.0,0.5,0.2,-0.06861858752654644,-0.07134458806173898,-0.7852646994128496
1.333333333333333,0.5,0.2,-0.13700086201875158,-0.09243510518205826,-0.8036049877070107
1.666666666666666,0.5,0.2,-0.23758868304790964,-0.10136535237602284,-0.8394679252258307
2.0,0.5,0.2,-0.3861523670410557,-0.12746903121668676,-0.8522644749783499
2.333333333333333,0.5,0.2,-0.590759754083366,-0.21848427936903242,-0.7663202968928098
2.666666666666666,0.5,0.2,-0.8164070454853851,-0.3855503534020406,-0.5270392963453914
3.0,0.5,0.2,-0.9630652904693774,-0.5183313714075126,-0.21538452083243245
3.333333333333333,0.5,0.2,-0.9485090698539578,-0.49279577982462275,0.030290033685413553
3.666666666666666,0.5,0.2,-0.7956069105848816,-0.3270802101025201,0.17511528042950153
4.0,0.5,0.2,-0.5980154419218152,-0.12417165938215456,0.2514863230185428
-4.0,0.75,0.2,-0.5184182087875707,-0.039610359402409596,0.2847420971292703
-3.6666666666666665,0.75,0.2,-0.6521428720228845,-0.174647617771888,0.2551352525529221
-3.3333333333333335,0.75,0.2,-0.8338245058001849,-0.365150436938829,0.1801573199120357
-3.0,0.75,0.2,-0.9543524284641567,-0.49500542745183407,0.016423720724807613
-2.666666666666667,0.75,0.2,-0.930570684953533,-0.47175995057759035,-0.2578110799662752
-2.3333333333333335,0.75,0.2,-0.7767242584122999,-0.34004159850796467,-0.5506306280607707
-2.0,0.75,0.2,-0.5768259423389862,-0.21645125464470324,-0.7417819791339766
-1.666666666666667,0.75,0.2,-0.39588960002399864,-0.14836489912509182,-0.8133335901459307
-1.3333333333333335,0.75,0.2,-0.25590563418231665,-0.11977292238943245,-0.8141628909038106
-1.0,0.75,0.2,-0.15438157147470627,-0.10277060170987155,-0.7935900137406631
-0.666666666666667,0.75,0.2,-0.08161789279605745,-0.07560002723996764,-0.784130112885994
-0.3333333333333335,0.75,0.2,-0.02923718660698249,-0.014859407611051647,-0.8156989285361057
0.0,0.75,0.2,0.010156297483544489,0.13136378049601577,-0.9460790618918319
0.33333333333333304,0.75,0.2,0.006775331919190849,0.0648213629138271,-0.8771646685262394
0.6666666666666661,0.75,0.2,-0.018376401136294494,-0.010864424224035114,-0.8149659927226195
1.0,0.75,0.2,-0.06143131704105994,-0.060454757237584755,-0.7923073310459556
1.333333333333333,0.75,0.2,-0.125475746446705,-0.085457840940684,-0.8043040856418424
1.666666666666666,0.75,0.2,-0.2203381915821734,-0.09744778711877378,-0.8354821637817003
2.0,0.75,0.2,-0.3606761981075687,-0.1225620058115004,-0.849402323418669
2.333333333333333,0.75,0.2,-0.5551169884546862,-0.20499711951089478,-0.7764011393685527
2.666666666666666,0.75,0.2,-0.7743523908929084,-0.3592203942167593,-0.5614493180283024
3.0,0.75,0.2,-0.9287766207482311,-0.4916047621008167,-0.2680876245920908
3.333333333333333,0.75,0.2,-0.9378268888812653,-0.4861718055090082,-0.020769371479281373
3.666666666666666,0.75,0.2,-0.8115940720238148,-0.3459857938181105,0.13771134967002172
4.0,0.75,0.2,-0.6298483479545285,-0.1574794375412318,0.22813402768653468
-4.0,1.0,0.2,-0.519928786850806,-0.03968991470651996,0.2860348019005279
-3.6666666666666665,1.0,0.2,-0.6388036522815852,-0.1597306983677094,0.2597129428114182
-3.3333333333333335,1.0,0.2,-0.8086406817698049,-0.3374627609774828,0.1912039040197584
-3.0,1.0,0.2,-0.9309108906059307,-0.46854206590524494,0.04013302064026985
-2.666666666666667,1.0,0.2,-0.9242233042711996,-0.46307697563244077,-0.21632564845430852
-2.3333333333333335,1.0,0.2,-0.7926665077148055,-0.35148483851706247,-0.4994149147552337
-2.0,1.0,0.2,-0.6078810045377827,-0.23595427331091984,-0.6978970425555591
-1.666666666666667,1.0,0.2,-0.4314808804232951,-0.16517622563665021,-0.7863836685490706
-1.3333333333333335,1.0,0.2,-0.28878773753527837,-0.13086419980931596,-0.8028939006442934
-1.0,1.0,0.2,-0.18157149518883664,-0.10992664741187422,-0.7918195624236568
-0.666666666666667,1.0,0.2,-0.10285135407915906,-0.08206991858493046,-0.7853543460661669
-0.3333333333333335,1.0,0.2,-0.04530819691473611,-0.02472699324238415,-0.8135642145825608
0.0,1.0,0.2,-0.0019151351789172405,0.11042198877093694,-0.9311687627432332
0.33333333333333304,1.0,0.2,0.0015356431131465366,0.06291018239227973,-0.8787628052945207
0.6666666666666661,1.0,0.2,-0.01793111104344025,-0.0030905323926714925,-0.8231460952780418
1.0,1.0,0.2,-0.056326075684796445,-0.05122608754006768,-0.798919443707635
1.333333333333333,1.0,0.2,-0.11588256314076284,-0.0783464434619458,-0.8062489046216631
1.666666666666666,1.0,0.2,-0.20526668739311366,-0.09277385670687599,-0.8331270495845438
2.0,1.0,0.2,-0.33805947364324185,-0.1175359988166167,-0.8470257070946297
2.333333333333333,1.0,0.2,-0.5230839481542182,-0.19340572153904484,-0.7837609521570681
2.666666666666666,1.0,0.2,-0.7353950021825822,-0.33667055613562735,-0.5890933614095288
3.0,1.0,0.2,-0.8941299699990679,-0.4666859715216769,-0.31355838297782546
3.333333333333333,1.0,0.2,-0.9216161390490676,-0.47580027642885775,-0.06891580542170038
3.666666666666666,1.0,0.2,-0.8190064873694725,-0.35738547435636403,0.09852696902127421
4.0,1.0,0.2,-0.6541819645341149,-0.18410214531211877,0.20077784338365307
-4.0,1.5,0.2,-0.5231151997140079,-0.0400371599375309,0.28861392415491544
-3.6666666666666665,1.5,0.2,-0.6206194528795717,-0.13850283665064228,0.267030644877808
-3.3333333333333335,1.5,0.2,-0.7698281219458445,-0.2942433904633959,0.20865136387701538
-3.0,1.5,0.2,-0.8898309904202473,-0.4220597530802047,0.07785303801570276
-2.666666666666667,1.5,0.2,-0.9056765849830859,-0.439830155933832,-0.14877965062539616
-2.3333333333333335,1.5,0.2,-0.8093925220024862,-0.36036195501638996,-0.4111889089857242
-2.0,1.5,0.2,-0.6537070175903223,-0.26316251686733905,-0.6142177489073166
-1.666666666666667,1.5,0.2,-0.4916918218134095,-0.19423060117255384,-0.725641773830962
-1.3333333333333335,1.5,0.2,-0.3506185110946153,-0.15420970049694427,-0.7681464780992651
-1.0,1.5,0.2,-0.2376362648325606,-0.12763358268035813,-0.7765109555675054
-0.666666666666667,1.5,0.2,-0.15029175586844915,-0.09788463375713255,-0.7798434689265549
-0.3333333333333335,1.5,0.2,-0.08377781250717291,-0.04482940335575367,-0.8068685093742555
0.0,1.5,0.2,-0.03240615970894192,0.07376464333112523,-0.9070393509883787
0.33333333333333304,1.5,0.2,-0.016672372481114455,0.0510344233853275,-0.8760245808119909
0.6666666666666661,1.5,0.2,-0.02474041268114814,0.0023951112971920194,-0.8326345500002509
1.0,1.5,0.2,-0.05312249892611498,-0.03927916934525465,-0.809254596547414
1.333333333333333,1.5,0.2,-0.10315784808048152,-0.0666251710416043,-0.8111609145362341
1.666666666666666,1.5,0.2,-0.18179651332773022,-0.08349491055110608,-0.8313927661776976
2.0,1.5,0.2,-0.3007449631792939,-0.10773611486268159,-0.8439477249435312
2.333333333333333,1.5,0.2,-0.46865811562270215,-0.17402017697582328,-0.7940071227049511
2.666666666666666,1.5,0.2,-0.6666866221134518,-0.2997731550530429,-0.6306298529564036
3.0,1.5,0.2,-0.8275572386083965,-0.4227228624431549,-0.38695853444671535
3.333333333333333,1.5,0.2,-0.8804632831978314,-0.4502390578759103,-0.15397928350607695
3.666666666666666,1.5,0.2,-0.8158556654587865,-0.36541269991610287,0.021415359167142475
4.0,1.5,0.2,-0.6834612657754593,-0.22068354227875783,0.1401901374589366
-4.0,2.0,0.2,-0.5259715180368663,-0.04001008039026493,0.2911821625985235
-3.6666666666666665,2.0,0.2,-0.608650523293838,-0.12349671060481006,0.27286715677233253
-3.3333333333333335,2.0,0.2,-0.7409160979229374,-0.26131287274723797,0.22205073289939015
-3.0,2.0,0.2,-0.8550559391775703,-0.3824020737462978,0.10683922804723078
-2.666666666666667,2.0,0.2,-0.8833214330124776,-0.41288616786303667,-0.09574797844225802
-2.3333333333333335,2.0,0.2,-0.811916571729109,-0.35615200391242874,-0.3381138504791636
-2.0,2.0,0.2,-0.6806678783241445,-0.2756858115651242,-0.5381340393023919
-1.666666666666667,2.0,0.2,-0.5346177013694288,-0.21270629425302937,-0.6619881841217656
-1.3333333333333335,2.0,0.2,-0.40003743422061855,-0.17184933056527968,-0.7229487021891767
-1.0,2.0,0.2,-0.2865571450456303,-0.1425916572500352,-0.7481074053430417
-0.666666666666667,2.0,0.2,-0.19473931523832716,-0.11155158252458296,-0.7626819456214909
-0.3333333333333335,2.0,0.2,-0.12200996479679993,-0.06114411538365799,-0.7930454993161633
0.0,2.0,0.2,-0.06421492452749267,0.04586198044555554,-0.8840024400580313
0.33333333333333304,2.0,0.2,-0.038857981462642514,0.03753201913679131,-0.8671576025409377
0.6666666666666661,2.0,0.2,-0.03717933892481284,0.0017873566688740884,-0.8343326984954458
1.0,2.0,0.2,-0.05632837141303258,-0.03297117783161359,-0.8143577246258215
1.333333333333333,2.0,0.2,-0.09728480477829907,-0.05825522308871703,-0.8144375013774768
1.666666666666666,2.0,0.2,-0.16589737720461162,-0.07549109712569915,-0.8306788486767375
2.0,2.0,0.2,-0.2724517198636704,-0.09886485186062635,-0.8419084510026882
2.333333333333333,2.0,0.2,-0.4251975821583771,-0.15819285387614077,-0.8007293509080355
2.666666666666666,2.0,0.2,-0.609283132805043,-0.270561444320463,-0.660182595844689
3.0,2.0,0.2,-0.7673756951857309,-0.38576482608174384,-0.4429120671882442
3.333333333333333,2.0,0.2,-0.8353571881061264,-0.4233018327351201,-0.2244960513917894
3.666666666666666,2.0,0.2,-0.7983562426696531,-0.36208194245148806,-0.0490922502269624
4.0,2.0,0.2,-0.6936370640170932,-0.24124260586740714,0.07856336906914659
-4.0,0.0,0.3,-0.5811902004771285,-0.10900011014221507,0.26690661962865075
-3.6666666666666665,0.0,0.3,-0.7885661140036458,-0.3354177837303431,0.2201195206751991
-3.3333333333333335,0.0,0.3,-0.9552428709157668,-0.5347303413027358,0.11298657520991286
-3.0,0.0,0.3,-0.9794194798725434,-0.5809638516011704,-0.11351755198703303
-2.666666666666667,0.0,0.3,-0.8347211845308495,-0.4398264996847749,-0.4428185663096717
-2.3333333333333335,0.0,0.3,-0.6092164222489921,-0.2533958774202872,-0.7137400250932538
-2.0,0.0,0.3,-0.40475693898792503,-0.14834784709404641,-0.8241662504353487
-1.666666666666667,0.0,0.3,-0.2554104368227397,-0.11636064842689277,-0.8242859346988288
-1.3333333333333335,0.0,0.3,-0.15380450959160624,-0.10849314532351337,-0.7917284355903407
-1.0,0.0,0.3,-0.08445230492098364,-0.09361565784489866,-0.7695183565364624
-0.666666666666667,0.0,0.3,-0.03502382264924507,-0.053747925225643686,-0.7791503295925282
-0.3333333333333335,0.0,0.3,0.0015426206085000609,0.037336290747472786,-0.8501829267386664
0.0,0.0,0.3,0.032579268901244934,0.24985644818506525,-1.0571850600184165
0.33333333333333304,0.0,0.3,0.0009295285219177729,0.03709886720831843,-0.8507488066745151
0.6666666666666661,0.0,0.3,-0.036079236172177634,-0.05420639129043859,-0.7801015427352401
1.0,0.0,0.3,-0.08574794494845377,-0.09421721428564203,-0.7707018782938265
1.333333333333333,0.0,0.3,-0.15519832440048303,-0.10916411069773999,-0.793046363113116
1.666666666666666,0.0,0.3,-0.2568428480247568,-0.11705838873813909,-0.8256842940220288
2.0,0.0,0.3,-0.40622716613975973,-0.14906647330215436,-0.825591386566487
2.333333333333333,0.0,0.3,-0.6107514932388957,-0.2541754777400353,-0.7150842339185478
2.666666666666666,0.0,0.3,-0.8363303816235689,-0.440724131058965,-0.4439198071886283
3.0,0.0,0.3,-0.9810240653939039,-0.5819322941100069,-0.11428782939863133
3.333333333333333,0.0,0.3,-0.9566742656978362,-0.535582938751445,0.11248067555724492
3.666666666666666,0.0,0.3,-0.7896779039969882,-0.3359939181213927,0.21977328934347778
4.0,0.0,0.3,-0.5819517351150255,-0.10927867408884716,0.2666590301595697
-4.0,0.25,0.3,-0.5821202338399295,-0.10917642672389763,0.2674787656459129
-3.6666666666666665,0.25,0.3,-0.7563401831146781,-0.2993730781038222,0.22816218042325984
-3.3333333333333335,0.25,0.3,-0.9244853026751577,-0.4974724223877567,0.1318059646934072
-3.0,0.25,0.3,-0.9719662839060319,-0.5682607446292726,-0.0740168096816196
-2.666666666666667,0.25,0.3,-0.8581500758133025,-0.4611383997512612,-0.3838246724870622
-2.3333333333333335,0.25,0.3,-0.6504515690787518,-0.2872832976720363,-0.6613557442788831
-2.0,0.25,0.3,-0.4452822709470145,-0.1710167361270326,-0.7988749656829676
-1.666666666666667,0.25,0.3,-0.2867998560677365,-0.12539769222206726,-0.8211630451463745
-1.3333333333333335,0.25,0.3,-0.17593071114936548,-0.11142863880958037,-0.7974121701795642
-1.0,0.25,0.3,-0.09980845224534787,-0.09667456006258585,-0.774907139101601
-0.666666666666667,0.25,0.3,-0.045985714912610096,-0.060802818719999506,-0.7793079285263731
-0.3333333333333335,0.25,0.3,-0.006510136066969728,0.021478276554348544,-0.8395463042178055
0.0,0.25,0.3,0.02604977113435858,0.21316490410260094,-1.0228619558626824
0.33333333333333304,0.25,0.3,0.004895878023830931,0.06553987461462536,-0.8789891246185542
0.6666666666666661,0.25,0.3,-0.029455687961179935,-0.03485498803477813,-0.7963794920951816
1.0,0.25,0.3,-0.07660927467702525,-0.08459060211848386,-0.7751012327731196
1.333333333333333,0.25,0.3,-0.142467911331571,-0.10513574173515304,-0.7903846426153859
1.666666666666666,0.25,0.3,-0.23838491199037948,-0.11506679784650391,-0.8202166935296944
2.0,0.25,0.3,-0.3792273328114566,-0.14353505976058828,-0.8249275578556242
2.333333333333333,0.25,0.3,-0.5735993540169073,-0.23635672363925594,-0.7329144932595905
2.666666666666666,0.25,0.3,-0.7942810374958637,-0.40792028947338155,-0.49045808673425295
3.0,0.25,0.3,-0.9513263407361771,-0.5541367328533517,-0.1746647423575312
3.333333333333333,0.25,0.3,-0.9562380298952736,-0.5388468157694191,0.06661569225917341
3.666666666666666,0.25,0.3,-0.8168970039283053,-0.3688859320796683,0.19558776361738817
4.0,0.25,0.3,-0.6201105872667236,-0.1512016345391417,0.25573304158331356
-4.0,0.5,0.3,-0.5804767073695317,-0.11433583986264251,0.2773875156162068
-3.6666666666666665,0.5,0.3,-0.7316289027277858,-0.2779676903943673,0.24201832324900516
-3.3333333333333335,0.5,0.3,-0.895066827297979,-0.467154302263444,0.15299860895423287
-3.0,0.5,0.3,-0.9583731793896343,-0.5523358049472971,-0.03732928060510855
-2.666666666666667,0.5,0.3,-0.8713197949976442,-0.47296812422469214,-0.3299139183673476
-2.3333333333333335,0.5,0.3,-0.683903428398589,-0.3153943681073663,-0.6081055182818911
-2.0,0.5,0.3,-0.48384537987484993,-0.1953203094541585,-0.7656644750971016
-1.666666666666667,0.5,0.3,-0.3201823257151309,-0.13871651263258905,-0.8096324464670073
-1.3333333333333335,0.5,0.3,-0.20118397337464772,-0.1172625381743381,-0.7982977517538982
-1.0,0.5,0.3,-0.11791426048130134,-0.10050957640082774,-0.7790395765151049
-0.666666666666667,0.5,0.3,-0.05893250813364754,-0.06696548522244189,-0.780567864856085
-0.3333333333333335,0.5,0.3,-0.015922748059113288,0.008312383622157752,-0.8322137203088824
0.0,0.5,0.3,0.01871911519032144,0.18300744762245844,-0.9960357584251646
0.33333333333333304,0.5,0.3,0.005724032084540922,0.07770259322076647,-0.8919323824132499
0.6666666666666661,0.5,0.3,-0.024441997395112772,-0.01750243972895913,-0.8117289451953273
1.0,0.5,0.3,-0.06861633349804462,-0.07282293192557121,-0.7825363179100445
1.333333333333333,0.5,0.3,-0.13105317446666773,-0.09897144025515757,-0.7905106291589293
1.666666666666666,0.5,0.3,-0.22188315125242847,-0.11195691512050315,-0.8162522117785828
2.0,0.5,0.3,-0.3551456180544842,-0.13879900009514473,-0.8231933847384189
2.333333333333333,0.5,0.3,-0.5400898910671834,-0.22252263580889992,-0.7448675242340791
2.666666666666666,0.5,0.3,-0.7546279198373388,-0.3812471493209848,-0.5262753909999297
3.0,0.5,0.3,-0.9188240990303984,-0.5283243764983819,-0.2259459979279717
3.333333333333333,0.5,0.3,-0.9465534231113073,-0.5365708222058261,0.022999713625682372
3.666666666666666,0.5,0.3,-0.8328838083542445,-0.3952036642060157,0.1713020782776183
4.0,0.5,0.3,-0.6502508916663521,-0.19238985038233702,0.24784165514428244
-4.0,0.75,0.3,-0.581409380187294,-0.1145079004192462,0.27794973392896904
-3.6666666666666665,0.75,0.3,-0.7143484246713669,-0.25841027638534386,0.24683762923459662
-3.3333333333333335,0.75,0.3,-0.8698146821150998,-0.43745730059458776,0.1657972892016344
-3.0,0.75,0.3,-0.942478845180476,-0.5316591017974446,-0.009490050508285212
-2.666666666666667,0.75,0.3,-0.8770990123731656,-0.4755332949382857,-0.2844203275592798
-2.3333333333333335,0.75,0.3,-0.7096941686790637,-0.3358370478832504,-0.5581629237021744
-2.0,0.75,0.3,-0.518357444928008,-0.21763943662279248,-0.728911516883615
-1.666666666666667,0.75,0.3,-0.353346755403714,-0.15395292063323898,-0.7915628345254563
-1.3333333333333335,0.75,0.3,-0.22834073176489308,-0.1256116481331385,-0.7937778645644449
-1.0,0.75,0.3,-0.1384601559617441,-0.10574816954711705,-0.7804080261929606
-0.666666666666667,0.75,0.3,-0.07403064715508242,-0.07307247341123749,-0.7815194333000086
-0.3333333333333335,0.75,0.3,-0.02698470578130281,-0.0031245390213431694,-0.8268650728977591
0.0,0.75,0.3,0.010277078099528178,0.15762715538207583,-0.9746906129283208
0.33333333333333304,0.75,0.3,0.004155587995052408,0.08129163936516795,-0.8971818381772282
0.6666666666666661,0.75,0.3,-0.021325908622378726,-0.004550786656370372,-0.8236785941074254
1.0,0.75,0.3,-0.06204419435020974,-0.06129880637018932,-0.7906630006996327
1.333333333333333,0.75,0.3,-0.12099282598057243,-0.09151738051966173,-0.7926870441250853
1.666666666666666,0.75,0.3,-0.20711756212611354,-0.10759432138220218,-0.8140798349719385
2.0,0.75,0.3,-0.33354574087647293,-0.13389337964836973,-0.8217055315215731
2.333333333333333,0.75,0.3,-0.5097768665657695,-0.21053734699324655,-0.7539611657811471
2.666666666666666,0.75,0.3,-0.7176210043874186,-0.35762475341510847,-0.5562049394045793
3.0,0.75,0.3,-0.8855796254538217,-0.5019491421470145,-0.27329959471371446
3.333333333333333,0.75,0.3,-0.9313311633709738,-0.5261188423063099,-0.024347612275941788
3.666666666666666,0.75,0.3,-0.841445068231232,-0.40874882341102914,0.13628137939910573
4.0,0.75,0.3,-0.6758561424657804,-0.22211488444026461,0.22609631116777154
-4.0,1.0,0.3,-0.5823422313093654,-0.1146800480208383,0.2785111385849077
-3.6666666666666665,1.0,0.3,-0.701027562763136,-0.243141978651513,0.2507306444437873
-3.3333333333333335,1.0,0.3,-0.8480172904706682,-0.4118294733297229,0.17645809584256036
-3.0,1.0,0.3,-0.9260525256754892,-0.5107907843683755,0.014149506644886164
-2.666666666666667,1.0,0.3,-0.8779355824959544,-0.4729627274758431,-0.24459102969693602
-2.3333333333333335,1.0,0.3,-0.7289859225726936,-0.3501605723727907,-0.5116506466901363
-2.0,1.0,0.3,-0.5481482656684029,-0.23689034926801691,-0.6907830690522497
-1.666666666666667,1.0,0.3,-0.38475179047792896,-0.16939526453527975,-0.7688339499933068
-1.3333333333333335,1.0,0.3,-0.2560389165367566,-0.13554775670440047,-0.7842869647999244
-1.0,1.0,0.3,-0.16067896201628967,-0.11235317919740088,-0.7783354260758295
-0.666666666666667,1.0,0.3,-0.09104077275290953,-0.07958497832695884,-0.781065819228423
-0.3333333333333335,1.0,0.3,-0.03975567323546485,-0.013579275247453115,-0.8222753238133182
0.0,1.0,0.3,0.0005222539045668627,0.1357048951414595,-0.9571530475631217
0.33333333333333304,1.0,0.3,0.0005220333991814068,0.08008638544609784,-0.8983053712041033
0.6666666666666661,1.0,0.3,-0.02012605293277451,0.0042809807802739845,-0.8323777786691287
1.0,1.0,0.3,-0.05705643780589164,-0.051255626222376394,-0.798207453391304
1.333333333333333,1.0,0.3,-0.11237953292856845,-0.08382241568804089,-0.7959037607679538
1.666666666666666,1.0,0.3,-0.19400386824063337,-0.10245491807896637,-0.8133050476577857
2.0,1.0,0.3,-0.31414962930249885,-0.12876803730050762,-0.8206764174418939
2.333333333333333,1.0,0.3,-0.48231596110946123,-0.19999551763920104,-0.7609538821132225
2.666666666666666,1.0,0.3,-0.6833090861609228,-0.33715961810256667,-0.5806915497748475
3.0,1.0,0.3,-0.8526886915666444,-0.47754487738456075,-0.3144990436936682
3.333333333333333,1.0,0.3,-0.9123444853125564,-0.5130620366709707,-0.06902086496081124
3.666666666666666,1.0,0.3,-0.8431990909240906,-0.4159445504450976,0.09974329341799827
4.0,1.0,0.3,-0.694796366769355,-0.24556187980835964,0.2008049470213513
-4.0,1.5,0.3,-0.5842084745923359,-0.1150246062442972,0.27963150912204654
-3.6666666666666665,1.5,0.3,-0.6820224399329105,-0.22087734653201646,0.2567293869816105
-3.3333333333333335,1.5,0.3,-0.8130550647045294,-0.3705551832861749,0.19319541868304735
-3.0,1.5,0.3,-0.8949477444630282,-0.47185185557322595,0.05201867008317035
-2.666666666666667,1.5,0.3,-0.8712978248675107,-0.4595183790286471,-0.1786476504038365
-2.3333333333333335,1.5,0.3,-0.7532312565218449,-0.3653095337205954,-0.42955470349299885
-2.0,1.5,0.3,-0.5944250908998199,-0.2655219061456041,-0.6158903903489026
-1.666666666666667,1.5,0.3,-0.43957040556607807,-0.19703315886136868,-0.7158581450897928
-1.3333333333333335,1.5,0.3,-0.3091408669615854,-0.15663093947425313,-0.7541867362937063
-1.0,1.5,0.3,-0.2068237039956876,-0.12799698601570308,-0.7642606607979332
-0.666666666666667,1.5,0.3,-0.12876676360123007,-0.09396386393652865,-0.7739726097797202
-0.3333333333333335,1.5,0.3,-0.0695544994967948,-0.03310258234311002,-0.8119982764782238
0.0,1.5,0.3,-0.022884139019598057,0.09874585188953923,-0.928426584238512
0.33333333333333304,1.5,0.3,-0.012112055005642402,0.07026585751007978,-0.8939565990157624
0.6666666666666661,1.5,0.3,-0.0231907944411488,0.012597742459687124,-0.8421842271648263
1.0,1.5,0.3,-0.05203735341178228,-0.03682549376638852,-0.8098477069254997
1.333333333333333,1.5,0.3,-0.09975015110142313,-0.07020464204657986,-0.8028079074129342
1.666666666666666,1.5,0.3,-0.17264985921914788,-0.09175640446804723,-0.8141456877553727
2.0,1.5,0.3,-0.2813333212393566,-0.11828490826173611,-0.8200346639826911
2.333333333333333,1.5,0.3,-0.43491546082944416,-0.18168885818312025,-0.7714006028038809
2.666666666666666,1.5,0.3,-0.6223840979879077,-0.30303274671762714,-0.6183974321987763
3.0,1.5,0.3,-0.7902692858205609,-0.4344907925794901,-0.38190901252132414
3.333333333333333,1.5,0.3,-0.86872310313505,-0.4839516951133114,-0.1484773091487005
3.666666666666666,1.5,0.3,-0.8325698182585213,-0.4178807225228951,0.02760644147109187
4.0,1.5,0.3,-0.7158960071408591,-0.27707723363180375,0.1446995602867499
-4.0,2.0,0.3,-0.5862988365850879,-0.11562400381973154,0.2807487888626971
-3.6666666666666665,2.0,0.3,-0.6696425852141137,-0.20580308483915527,0.26123929467649754
-3.3333333333333335,2.0,0.3,-0.7871970566863151,-0.33967767600618326,0.205744454424342
-3.0,2.0,0.3,-0.8685210513009411,-0.4388528179378888,0.08086389711643441
-2.666666666666667,2.0,0.3,-0.8604646299917987,-0.4423242241372335,-0.12683160360664303
-2.3333333333333335,2.0,0.3,-0.7660041052374236,-0.36991055291444197,-0.3611245268077392
-2.0,2.0,0.3,-0.6275483118634362,-0.28408025801255643,-0.5473411397382358
-1.666666666666667,2.0,0.3,-0.4843539920273098,-0.21929266979320272,-0.6603483407420723
-1.3333333333333335,2.0,0.3,-0.35725598789118757,-0.1768926335534328,-0.7158884692922403
-1.0,2.0,0.3,-0.2526706965286224,-0.1452778563150959,-0.7406184631700858
-0.666666666666667,2.0,0.3,-0.1694967793332923,-0.11024754207112539,-0.7591749134322071
-0.3333333333333335,2.0,0.3,-0.10418465077712431,-0.05280169369020475,-0.7981236634573472
0.0,2.0,0.3,-0.051696508104597874,0.06631556989845974,-0.9030489125295517
0.33333333333333304,2.0,0.3,-0.03165425737452984,0.05461560633856183,-0.8843146059989883
0.6666666666666661,2.0,0.3,-0.033572911171157266,0.0116919814752901,-0.8445693542051751
1.0,2.0,0.3,-0.05403821117540585,-0.02994458986241389,-0.8164908625483495
1.333333333333333,2.0,0.3,-0.09375760023676671,-0.060976144583701694,-0.8081542599090465
1.666666666666666,2.0,0.3,-0.15800384255703487,-0.08286762419047787,-0.8159004418182647
2.0,2.0,0.3,-0.25607853055185803,-0.10885292844299985,-0.8204076732132795
2.333333333333333,2.0,0.3,-0.3965291686215887,-0.16640126964250584,-0.7791081547245965
2.666666666666666,2.0,0.3,-0.5710267075097533,-0.27553591059153826,-0.6461856653652367
3.0,2.0,0.3,-0.7341040383218149,-0.39816329974092274,-0.4343084215724253
3.333333333333333,2.0,0.3,-0.8231966702579616,-0.4546939702701307,-0.21518697197958384
3.666666666666666,2.0,0.3,-0.8107884397359784,-0.41031989885007725,-0.03902408049688902
4.0,2.0,0.3,-0.7206217850269733,-0.2938735370363361,0.08707238011910193
-4.0,0.0,0.4,-0.6435038608902036,-0.18896438695903003,0.264754476605929
-3.6666666666666665,0.0,0.4,-0.8327818662008911,-0.4138898458558575,0.21634862376474065
-3.3333333333333335,0.0,0.4,-0.9529426246356234,-0.5809625133481008,0.09981541572095586
-3.0,0.0,0.4,-0.9280827558565896,-0.5837202545600684,-0.13730477929275636
-2.666666666666667,0.0,0.4,-0.7643488643553856,-0.42678622583699005,-0.4539142767347901
-2.3333333333333335,0.0,0.4,-0.5516226270290777,-0.25296866854563665,-0.6973020634133537
-2.0,0.0,0.4,-0.3683827895507442,-0.15845668378845432,-0.7952139983593572
-1.666666666666667,0.0,0.4,-0.23553100352747472,-0.1271385835125471,-0.7990372764543767
-1.3333333333333335,0.0,0.4,-0.14469258336379603,-0.11567989357159164,-0.7760435990936869
-1.0,0.0,0.4,-0.08228251018375074,-0.09603282148422024,-0.7643079015837183
-0.666666666666667,0.0,0.4,-0.03726984771926122,-0.049846556047280305,-0.7850507022648332
-0.3333333333333335,0.0,0.4,-0.0027566154202691095,0.05086911726308786,-0.8689508270443503
0.0,0.0,0.4,0.02907702843212097,0.2766835961624377,-1.0899733208649947
0.33333333333333304,0.0,0.4,-0.003335534673844989,0.05064978116904434,-0.8694898255783416
0.6666666666666661,0.0,0.4,-0.03827508875194712,-0.05027623991389294,-0.7859615583782691
1.0,0.0,0.4,-0.08352917292265336,-0.09660462837099906,-0.7654479714432575
1.333333333333333,0.0,0.4,-0.1460461008047492,-0.11632688229260808,-0.7773184595852822
1.666666666666666,0.0,0.4,-0.23693097785392406,-0.12782134572799966,-0.8003928127509858
2.0,0.0,0.4,-0.3698225614027764,-0.1591684124797667,-0.796599119845157
2.333333333333333,0.0,0.4,-0.553121892168557,-0.25374213125908274,-0.6986216177052132
2.666666666666666,0.0,0.4,-0.765919633978646,-0.4276749772084091,-0.4550219515685738
3.0,0.0,0.4,-0.929672653443741,-0.5847016200211204,-0.13810262025523665
3.333333333333333,0.0,0.4,-0.9544129684142372,-0.5818787200981326,0.0992848630151065
3.666666666666666,0.0,0.4,-0.8339838754915211,-0.4145692496344059,0.21598430628149756
4.0,0.0,0.4,-0.6443728583572321,-0.18934771860320018,0.26449012079398815
-4.0,0.25,0.4,-0.6441836398796584,-0.18916658993009527,0.26505565974035644
-3.6666666666666665,0.25,0.4,-0.8049654932673834,-0.38020571277872,0.22392992356033295
-3.3333333333333335,0.25,0.4,-0.9314121592147421,-0.5510516926816964,0.1187088867833343
-3.0,0.25,0.4,-0.9294954841925372,-0.5792842253567225,-0.098633762033836
-2.666666666666667,0.25,0.4,-0.7901896732315832,-0.4502875670544685,-0.40046327933525155
-2.3333333333333335,0.25,0.4,-0.5884592220910739,-0.2831311029203433,-0.6529005059784342
-2.0,0.25,0.4,-0.40230764334361724,-0.17754172548463454,-0.7743038283647729
-1.666666666666667,0.25,0.4,-0.26130211285254606,-0.1349453960415496,-0.7959458615656886
-1.3333333333333335,0.25,0.4,-0.16280806229945866,-0.11875718321208525,-0.7796923611740357
-1.0,0.25,0.4,-0.0948830231074815,-0.09961433005814738,-0.767244673254386
-0.666666666666667,0.25,0.4,-0.04633831078976233,-0.057483767575196985,-0.7829294462417513
-0.3333333333333335,0.25,0.4,-0.009612066574085375,0.03443035011878248,-0.856465344390808
0.0,0.25,0.4,0.023075342283688852,0.24008082111638943,-1.0551352318780178
0.33333333333333304,0.25,0.4,0.0006224516707687014,0.07938259279435625,-0.8979506471126124
0.6666666666666661,0.25,0.4,-0.03235402258248384,-0.03060629055335506,-0.8031519400815106
1.0,0.25,0.4,-0.07571290004469029,-0.08657144622525882,-0.7713280603158001
1.333333333333333,0.25,0.4,-0.13532471908033414,-0.1117766925082308,-0.7765548344624366
1.666666666666666,0.25,0.4,-0.221494696772248,-0.1253455556401884,-0.7969156946276614
2.0,0.25,0.4,-0.3473536390445762,-0.15400972461374654,-0.7967662760913867
2.333333333333333,0.25,0.4,-0.5220186873077484,-0.23863702998326786,-0.7135617280016311
2.666666666666666,0.25,0.4,-0.7291214768088885,-0.39911330824892544,-0.4941613771742025
3.0,0.25,0.4,-0.8995112326498054,-0.5567351983004062,-0.19188920027426443
3.333333333333333,0.25,0.4,-0.946342351533602,-0.5782376509289129,0.055424354202638214
3.666666666666666,0.25,0.4,-0.8512305942246111,-0.43949002109069224,0.1919583674170218
4.0,0.25,0.4,-0.6758907555261888,-0.22729965606718866,0.2538152482649183
-4.0,0.5,0.4,-0.642630741131665,-0.1943649044575623,0.2743701092158369
-3.6666666666666665,0.5,0.4,-0.7832354733015894,-0.3599898039838353,0.23716151578062616
-3.3333333333333335,0.5,0.4,-0.9095587028776257,-0.5262173889468733,0.13977628715773538
-3.0,0.5,0.4,-0.9247576607443523,-0.5711182882116689,-0.062381417839739696
-2.666666666666667,0.5,0.4,-0.8080012524379668,-0.46630107348828953,-0.3504414684437895
-2.3333333333333335,0.5,0.4,-0.6202971517437396,-0.30992516417577687,-0.6065685029251312
-2.0,0.5,0.4,-0.4356841693772039,-0.19878693416867232,-0.7465383064782913
-1.666666666666667,0.5,0.4,-0.28907434447148095,-0.1463356232890163,-0.7863030937472322
-1.3333333333333335,0.5,0.4,-0.18346480230919027,-0.12403945775994926,-0.7798226327451716
-1.0,0.5,0.4,-0.10960387451504794,-0.10365031035392644,-0.7694352323966395
-0.666666666666667,0.5,0.4,-0.05689459168630004,-0.06417625092209395,-0.7819399641481087
-0.3333333333333335,0.5,0.4,-0.017441720548514936,0.020555044542149428,-0.8470040215352441
0.0,0.5,0.4,0.01659240363972237,0.20945831654153002,-1.026974827467231
0.33333333333333304,0.5,0.4,0.0018327463505114438,0.09249543090466551,-0.9115111281103273
0.6666666666666661,0.5,0.4,-0.027672639774107832,-0.012661951671280935,-0.8193870821073342
1.0,0.5,0.4,-0.06872155869589427,-0.0744564005863932,-0.7799331359742604
1.333333333333333,0.5,0.4,-0.12558486039030714,-0.10523575333365941,-0.778256610190498
1.666666666666666,0.5,0.4,-0.20755739088380096,-0.12179998076116372,-0.7948013859011271
2.0,0.5,0.4,-0.32712978081368205,-0.14927551988664114,-0.796332990622771
2.333333333333333,0.5,0.4,-0.4937783516413802,-0.2262610700851435,-0.7244561743729707
2.666666666666666,0.5,0.4,-0.6945752379590353,-0.3748109574842772,-0.5258679337162177
3.0,0.5,0.4,-0.868195754938235,-0.5297328904135826,-0.2398653401449637
3.333333333333333,0.5,0.4,-0.9321545120693233,-0.5684487655519402,0.01048063377257874
3.666666666666666,0.5,0.4,-0.8602049329124258,-0.45527657929966486,0.16242756750372778
4.0,0.5,0.4,-0.7014760439319707,-0.2594185500230964,0.2381780968091008
-4.0,0.75,0.4,-0.6433123700362631,-0.19456390637822618,0.274664476721977
-3.6666666666666665,0.75,0.4,-0.7677072546799495,-0.3410787402153875,0.24174176811714002
-3.3333333333333335,0.75,0.4,-0.8901369640498973,-0.5006794143003503,0.15276290460990294
-3.0,0.75,0.4,-0.9169128400425067,-0.557382195849464,-0.034437649921741746
-2.666666666666667,0.75,0.4,-0.8194697189493056,-0.4740008077726547,-0.30749066553004867
-2.3333333333333335,0.75,0.4,-0.6466539318585893,-0.33099828734391623,-0.5622448056528043
-2.0,0.75,0.4,-0.4667906059922553,-0.2192109192328625,-0.7153023781945387
-1.666666666666667,0.75,0.4,-0.31735879795094823,-0.15968997004115726,-0.7712870913513877
-1.3333333333333335,0.75,0.4,-0.20595550542025617,-0.13141227911781367,-0.7758245530255279
-1.0,0.75,0.4,-0.12634519080032391,-0.10869957232617068,-0.769713790469982
-0.666666666666667,0.75,0.4,-0.06912436597574548,-0.07060206850886913,-0.781026057741425
-0.3333333333333335,0.75,0.4,-0.026489392499220693,0.008444078087822864,-0.839540524068283
0.0,0.75,0.4,0.009371241433289072,0.1833458676436221,-1.0038600738448373
0.33333333333333304,0.75,0.4,0.0009962697163755094,0.09700945046006165,-0.9171281541540044
0.6666666666666661,0.75,0.4,-0.02451254874657715,0.0011566778171737124,-0.8322264595122808
1.0,0.75,0.4,-0.06279805348688808,-0.06243087566954573,-0.7891210456352158
1.333333333333333,0.75,0.4,-0.11685638147017458,-0.09744493878458321,-0.7817485177899541
1.666666666666666,0.75,0.4,-0.19494844102982495,-0.11716317068689683,-0.7941472993093681
2.0,0.75,0.4,-0.30883170995509096,-0.14455307344046137,-0.7958717023649056
2.333333333333333,0.75,0.4,-0.4680807380457872,-0.21597985108568213,-0.732307352888204
2.666666666666666,0.75,0.4,-0.662397822209015,-0.35475983690787294,-0.5507036081297978
3.0,0.75,0.4,-0.8369302776287276,-0.5062884474998837,-0.27970492449714734
3.333333333333333,0.75,0.4,-0.9137616426325181,-0.5581286648041824,-0.02909282624084858
3.666666666666666,0.75,0.4,-0.8615966208202734,-0.46778885251645297,0.1357748140618095
4.0,0.75,0.4,-0.7190995660589014,-0.28984935210699914,0.22618144538791846
-4.0,1.0,0.4,-0.6439941755780182,-0.19476298485547935,0.2749584615698139
-3.6666666666666665,1.0,0.4,-0.7555563073883362,-0.32614903885334917,0.2454287303083789
-3.3333333333333335,1.0,0.4,-0.8729337544844531,-0.4781810357530462,0.16362574244297523
-3.0,1.0,0.4,-0.9075807564116025,-0.5424539819476754,-0.010495119034492878
-2.666666666666667,1.0,0.4,-0.8262951128024143,-0.47673814461196773,-0.2693337671815622
-2.3333333333333335,1.0,0.4,-0.6679745948348835,-0.3472177470908264,-0.5202048409279274
-2.0,1.0,0.4,-0.4948093805774244,-0.23774791150298502,-0.6822916319999967
-1.666666666666667,1.0,0.4,-0.3449448731002981,-0.17373104344635926,-0.7521526677533877
-1.3333333333333335,1.0,0.4,-0.22936248486739974,-0.14031751996701775,-0.7678152934478537
-1.0,1.0,0.4,-0.14466631060193721,-0.11487154531124256,-0.7674302769478824
-0.666666666666667,1.0,0.4,-0.08295251300260939,-0.07720901278558921,-0.7792932582431724
-0.3333333333333335,1.0,0.4,-0.03686616945979564,-0.0025580028321796518,-0.8331005405494458
0.0,1.0,0.4,0.0012156695506375607,0.1606127427985312,-0.9844329875140101
0.33333333333333304,1.0,0.4,-0.0015596905429188755,0.09655190400221779,-0.9182970013181024
0.6666666666666661,1.0,0.4,-0.022901473809239105,0.010967552301846654,-0.8417102841302284
1.0,1.0,0.4,-0.05809566282682668,-0.051696363327305914,-0.7976777935833749
1.333333333333333,1.0,0.4,-0.1092212439237495,-0.0892961937521553,-0.7861807072510596
1.666666666666666,1.0,0.4,-0.18360388895574392,-0.11168304985619146,-0.7947949974251756
2.0,1.0,0.4,-0.29224517496601254,-0.13939308825375166,-0.7960438303871442
2.333333333333333,1.0,0.4,-0.44463170088953446,-0.20639335539267956,-0.7390483923569678
2.666666666666666,1.0,0.4,-0.6324933032518081,-0.33636398005331936,-0.5724070657949314
3.0,1.0,0.4,-0.8064440062118492,-0.4829435196884836,-0.3168670252439904
3.333333333333333,1.0,0.4,-0.8932258917818292,-0.5431161267578184,-0.07050781840448933
3.666666666666666,1.0,0.4,-0.8586270668215215,-0.471026691457056,0.10154941591635003
4.0,1.0,0.4,-0.7328270342380996,-0.30976762943166364,0.20271668978414778
-4.0,1.5,0.4,-0.6453583192953757,-0.19516137261500505,0.2755452838137652
-3.6666666666666665,1.5,0.4,-0.7378926837834701,-0.3041151533541714,0.2510464820106518
-3.3333333333333335,1.5,0.4,-0.8445746190509918,-0.44114701445072196,0.1807307738894914
-3.0,1.5,0.4,-0.887973740865829,-0.5128008716320684,0.028233960009696107
-2.666666666666667,1.5,0.4,-0.8311014573384079,-0.4731809205408487,-0.20510872153232187
-2.3333333333333335,1.5,0.4,-0.6985442253646923,-0.3680117944747931,-0.4443868252040287
-2.0,1.5,0.4,-0.5411389868286098,-0.26760028591018215,-0.6158738688114122
-1.666666666666667,1.5,0.4,-0.3953200677626259,-0.20040367942156753,-0.7065020359816333
-1.3333333333333335,1.5,0.4,-0.2758574491657547,-0.16005573908790954,-0.7422247858310691
-1.0,1.5,0.4,-0.18377475029103926,-0.12962667744799627,-0.7549511723135508
